{"learner":{"attributes":{"scikit_learn":"{\"_estimator_type\": \"regressor\"}"},"feature_names":["distance_km","hour_of_day","day_of_week","is_raining","road_qualities","congestion_levels","type_of_road","checkpoints"],"feature_types":["float","int","int","int","int","int","int","int"],"gradient_booster":{"model":{"cats":{"enc":[],"feature_segments":[],"sorted_idx":[]},"gbtree_model_param":{"num_parallel_tree":"1","num_trees":"100"},"iteration_indptr":[0,1,2,3,4,5,6,7,8,9,10,11,12,13,14,15,16,17,18,19,20,21,22,23,24,25,26,27,28,29,30,31,32,33,34,35,36,37,38,39,40,41,42,43,44,45,46,47,48,49,50,51,52,53,54,55,56,57,58,59,60,61,62,63,64,65,66,67,68,69,70,71,72,73,74,75,76,77,78,79,80,81,82,83,84,85,86,87,88,89,90,91,92,93,94,95,96,97,98,99,100],"tree_info":[0,0,0,0,0,0,0,0,0,0,0,0,0,0,0,0,0,0,0,0,0,0,0,0,0,0,0,0,0,0,0,0,0,0,0,0,0,0,0,0,0,0,0,0,0,0,0,0,0,0,0,0,0,0,0,0,0,0,0,0,0,0,0,0,0,0,0,0,0,0,0,0,0,0,0,0,0,0,0,0,0,0,0,0,0,0,0,0,0,0,0,0,0,0,0,0,0,0,0,0],"trees":[{"base_weights":[-1.8920937E-6,-1.634103E1,1.5606598E1,-2.3589294E1,-8.194558E0,7.5469403E0,2.4530022E1,-2.7713165E1,-1.9720995E1,-1.1997984E1,-5.016325E0,5.6325855E0,1.8324732E1,2.11738E1,3.896346E1,-2.9549257E1,-2.4683674E1,-2.2623833E1,-1.774282E1,-1.52398205E1,-9.67881E0,-6.3570485E0,2.5011568E0,1.8777864E0,9.780127E0,1.5245135E1,2.511553E1,1.6370134E1,2.7649315E1,4.2156223E1,3.0614754E1,-3.080776E0,-2.7202098E0,-2.6274314E0,-2.2553668E0,-2.559087E0,-2.0939202E0,-1.9795427E0,-1.5072393E0,-1.6455456E0,-7.733898E-1,-1.053771E0,-3.9881232E-1,-8.7819064E-1,-2.7320752E-1,4.0193102E-1,-6.0571164E-1,-1.6897127E-1,6.2789184E-1,1.572791E0,6.933946E-1,1.0203347E0,1.7173232E0,1.1890954E0,2.6348073E0,1.8337948E0,7.81311E-1,2.2527254E0,3.445235E0,2.451799E0,4.4979935E0,1.5098716E0,3.4232843E0],"categories":[],"categories_nodes":[],"categories_segments":[],"categories_sizes":[],"default_left":[0,0,0,0,0,0,0,0,0,0,0,0,0,0,0,0,0,0,0,0,0,0,0,0,0,0,0,0,0,0,0,0,0,0,0,0,0,0,0,0,0,0,0,0,0,0,0,0,0,0,0,0,0,0,0,0,0,0,0,0,0,0,0],"id":0,"left_children":[1,3,5,7,9,11,13,15,17,19,21,23,25,27,29,31,33,35,37,39,41,43,45,47,49,51,53,55,57,59,61,-1,-1,-1,-1,-1,-1,-1,-1,-1,-1,-1,-1,-1,-1,-1,-1,-1,-1,-1,-1,-1,-1,-1,-1,-1,-1,-1,-1,-1,-1,-1,-1],"loss_changes":[1.0206216E6,1.1524509E5,1.4703456E5,1.59481875E4,1.1085105E4,2.2118004E4,4.6212E4,2.0406875E3,2.6822031E3,3.0026992E3,5.0956484E3,1.424667E4,3.005004E3,2.4121312E4,3.5606875E3,6.29375E1,6.469531E1,5.337969E2,1.4775938E3,1.4512695E3,1.1652422E3,3.7381445E3,1.024789E3,7.578508E3,7.254824E3,9.329746E2,4.8539062E2,7.535133E3,1.0897141E4,5.322078E3,2.5146055E3,0E0,0E0,0E0,0E0,0E0,0E0,0E0,0E0,0E0,0E0,0E0,0E0,0E0,0E0,0E0,0E0,0E0,0E0,0E0,0E0,0E0,0E0,0E0,0E0,0E0,0E0,0E0,0E0,0E0,0E0,0E0,0E0],"parents":[2147483647,0,0,1,1,2,2,3,3,4,4,5,5,6,6,7,7,8,8,9,9,10,10,11,11,12,12,13,13,14,14,15,15,16,16,17,17,18,18,19,19,20,20,21,21,22,22,23,23,24,24,25,25,26,26,27,27,28,28,29,29,30,30],"right_children":[2,4,6,8,10,12,14,16,18,20,22,24,26,28,30,32,34,36,38,40,42,44,46,48,50,52,54,56,58,60,62,-1,-1,-1,-1,-1,-1,-1,-1,-1,-1,-1,-1,-1,-1,-1,-1,-1,-1,-1,-1,-1,-1,-1,-1,-1,-1,-1,-1,-1,-1,-1,-1],"split_conditions":[1.533E1,8.28E0,2.291E1,4.44E0,1.138E1,1E0,1E0,3E0,2E0,2E0,1E0,1.937E1,2.021E1,4E0,5E0,3.01E0,3.01E0,5.82E0,6.41E0,1E0,1E0,4E0,1E0,4E0,1.1E1,3E0,1E0,2E1,2.702E1,8E0,2E0,-3.080776E0,-2.7202098E0,-2.6274314E0,-2.2553668E0,-2.559087E0,-2.0939202E0,-1.9795427E0,-1.5072393E0,-1.6455456E0,-7.733898E-1,-1.053771E0,-3.9881232E-1,-8.7819064E-1,-2.7320752E-1,4.0193102E-1,-6.0571164E-1,-1.6897127E-1,6.2789184E-1,1.572791E0,6.933946E-1,1.0203347E0,1.7173232E0,1.1890954E0,2.6348073E0,1.8337948E0,7.81311E-1,2.2527254E0,3.445235E0,2.451799E0,4.4979935E0,1.5098716E0,3.4232843E0],"split_indices":[0,0,0,0,0,3,3,7,7,7,3,0,0,5,2,0,0,0,0,3,3,5,6,5,1,5,7,1,0,1,5,0,0,0,0,0,0,0,0,0,0,0,0,0,0,0,0,0,0,0,0,0,0,0,0,0,0,0,0,0,0,0,0],"split_type":[0,0,0,0,0,0,0,0,0,0,0,0,0,0,0,0,0,0,0,0,0,0,0,0,0,0,0,0,0,0,0,0,0,0,0,0,0,0,0,0,0,0,0,0,0,0,0,0,0,0,0,0,0,0,0,0,0,0,0,0,0,0,0],"sum_hessian":[4E3,1.954E3,2.046E3,1.033E3,9.21E2,1.076E3,9.7E2,4.97E2,5.36E2,4.18E2,5.03E2,9.15E2,1.61E2,7.89E2,1.81E2,3.04E2,1.93E2,2.13E2,3.23E2,1.72E2,2.46E2,4.27E2,7.6E1,4.81E2,4.34E2,1.13E2,4.8E1,4.55E2,3.34E2,1.28E2,5.3E1,1.9E2,1.14E2,1.04E2,8.9E1,7.2E1,1.41E2,1.79E2,1.44E2,1.47E2,2.5E1,2.13E2,3.3E1,2.55E2,1.72E2,6.5E1,1.1E1,2.66E2,2.15E2,1.39E2,2.95E2,3.3E1,8E1,5E0,4.3E1,3.69E2,8.6E1,1.93E2,1.41E2,1.9E1,1.09E2,1.1E1,4.2E1],"tree_param":{"num_deleted":"0","num_feature":"8","num_nodes":"63","size_leaf_vector":"1"}},{"base_weights":[1.3563056E-3,-1.4719229E1,1.4060342E1,-2.124857E1,-7.3807716E0,7.1199837E0,2.2487724E1,-2.4053776E1,-1.6592968E1,-1.0807425E1,-4.5173817E0,5.369994E0,1.6774752E1,1.9377834E1,3.5971786E1,-2.5853212E1,-2.1214426E1,-1.916265E1,-1.4680213E1,-1.3729821E1,-8.716809E0,-5.7240343E0,2.248394E0,2.1237814E0,9.627463E0,1.3744636E1,2.2345234E1,1.5052046E1,2.5215893E1,3.8252056E1,2.4800243E1,-2.7743115E0,-2.3909369E0,-2.2813673E0,-1.8232592E0,-1.9762331E0,-1.5952328E0,-1.5521221E0,-8.088641E-1,-1.482103E0,-6.990256E-1,-9.7109014E-1,-4.5016876E-1,-9.21538E-1,-3.2960445E-1,1.3542347E-2,7.876534E-1,8.106901E-1,-2.718558E-2,5.653934E-1,1.3935356E0,1.0165113E0,1.6103926E0,1.2181871E0,2.3931003E0,1.679002E0,5.080797E-1,3.3429215E0,2.1583328E0,3.3682199E0,5.2765565E0,1.0086688E0,2.654194E0],"categories":[],"categories_nodes":[],"categories_segments":[],"categories_sizes":[],"default_left":[0,0,0,0,0,0,0,0,0,0,0,0,0,0,0,0,0,0,0,0,0,0,0,0,0,0,0,0,0,0,0,0,0,0,0,0,0,0,0,0,0,0,0,0,0,0,0,0,0,0,0,0,0,0,0,0,0,0,0,0,0,0,0],"id":1,"left_children":[1,3,5,7,9,11,13,15,17,19,21,23,25,27,29,31,33,35,37,39,41,43,45,47,49,51,53,55,57,59,61,-1,-1,-1,-1,-1,-1,-1,-1,-1,-1,-1,-1,-1,-1,-1,-1,-1,-1,-1,-1,-1,-1,-1,-1,-1,-1,-1,-1,-1,-1,-1,-1],"loss_changes":[8.282399E5,9.351759E4,1.19567E5,1.31048125E4,8.997699E3,1.890073E4,3.8049906E4,2.7367812E3,1.6454453E3,2.440246E3,4.127496E3,1.3150637E4,2.5960938E3,1.8636875E4,3.4328906E3,7.657344E2,8.000625E2,4.7265625E-1,1.1439297E3,1.1686855E3,9.912676E2,3.5977617E3,9.1462463E2,7.7708984E3,6.9736367E3,7.990488E2,6.5936523E2,7.4531406E3,8.795984E3,7.5745312E3,5.5233203E2,0E0,0E0,0E0,0E0,0E0,0E0,0E0,0E0,0E0,0E0,0E0,0E0,0E0,0E0,0E0,0E0,0E0,0E0,0E0,0E0,0E0,0E0,0E0,0E0,0E0,0E0,0E0,0E0,0E0,0E0,0E0,0E0],"parents":[2147483647,0,0,1,1,2,2,3,3,4,4,5,5,6,6,7,7,8,8,9,9,10,10,11,11,12,12,13,13,14,14,15,15,16,16,17,17,18,18,19,19,20,20,21,21,22,22,23,23,24,24,25,25,26,26,27,27,28,28,29,29,30,30],"right_children":[2,4,6,8,10,12,14,16,18,20,22,24,26,28,30,32,34,36,38,40,42,44,46,48,50,52,54,56,58,60,62,-1,-1,-1,-1,-1,-1,-1,-1,-1,-1,-1,-1,-1,-1,-1,-1,-1,-1,-1,-1,-1,-1,-1,-1,-1,-1,-1,-1,-1,-1,-1,-1],"split_conditions":[1.533E1,8.28E0,2.32E1,5.46E0,1.138E1,1E0,1E0,3E0,2E0,2E0,1E0,4E0,2.021E1,4E0,2E1,3.01E0,3.99E0,1E0,1E0,1E0,5E0,2E0,5E0,1.1E1,1.937E1,1.741E1,2E0,1E0,1.1E1,1.7E1,2.377E1,-2.7743115E0,-2.3909369E0,-2.2813673E0,-1.8232592E0,-1.9762331E0,-1.5952328E0,-1.5521221E0,-8.088641E-1,-1.482103E0,-6.990256E-1,-9.7109014E-1,-4.5016876E-1,-9.21538E-1,-3.2960445E-1,1.3542347E-2,7.876534E-1,8.106901E-1,-2.718558E-2,5.653934E-1,1.3935356E0,1.0165113E0,1.6103926E0,1.2181871E0,2.3931003E0,1.679002E0,5.080797E-1,3.3429215E0,2.1583328E0,3.3682199E0,5.2765565E0,1.0086688E0,2.654194E0],"split_indices":[0,0,0,0,0,3,3,7,7,7,3,5,0,5,1,0,0,3,3,3,5,7,5,1,0,0,5,6,1,1,0,0,0,0,0,0,0,0,0,0,0,0,0,0,0,0,0,0,0,0,0,0,0,0,0,0,0,0,0,0,0,0,0],"split_type":[0,0,0,0,0,0,0,0,0,0,0,0,0,0,0,0,0,0,0,0,0,0,0,0,0,0,0,0,0,0,0,0,0,0,0,0,0,0,0,0,0,0,0,0,0,0,0,0,0,0,0,0,0,0,0,0,0,0,0,0,0,0,0],"sum_hessian":[4E3,1.954E3,2.046E3,1.033E3,9.21E2,1.123E3,9.23E2,6.42E2,3.91E2,4.18E2,5.03E2,9.52E2,1.71E2,7.52E2,1.71E2,3.88E2,2.54E2,1.63E2,2.28E2,1.72E2,2.46E2,4.27E2,7.6E1,5.41E2,4.11E2,1.13E2,5.8E1,4.34E2,3.18E2,1.4E2,3.1E1,1.9E2,1.98E2,1.61E2,9.3E1,1.33E2,3E1,2.01E2,2.7E1,1.47E2,2.5E1,1.98E2,4.8E1,1.74E2,2.53E2,5.6E1,2E1,1.54E2,3.87E2,2.15E2,1.96E2,4.7E1,6.6E1,9E0,4.9E1,3.69E2,6.5E1,9.5E1,2.23E2,1.09E2,3.1E1,4E0,2.7E1],"tree_param":{"num_deleted":"0","num_feature":"8","num_nodes":"63","size_leaf_vector":"1"}},{"base_weights":[3.6507812E-3,-1.3257154E1,1.2668464E1,-2.0088516E1,-7.552996E0,6.108683E0,1.9931301E1,-2.2880106E1,-1.732666E1,-1.110427E1,-4.366126E0,4.543069E0,1.4923463E1,1.7198967E1,3.1681917E1,-2.5006962E0,-2.1276625E1,-1.891358E1,-1.5026733E1,-1.4167641E1,-9.092375E0,-6.6329064E0,-1.210556E0,1.337298E0,8.084766E0,1.2393215E1,2.05056E1,1.3303508E1,2.2450102E1,3.4462135E1,2.4453579E1,-2.27633E0,-1.9951922E0,-2.089752E0,-1.7327296E0,-1.6347799E0,-1.2752811E0,-1.4882461E0,-8.8664275E-1,-9.925017E-1,-3.2863674E-1,-7.5933444E-1,-8.721569E-2,-4.561821E-1,1.2266691E-1,-1.7045423E-1,5.0911593E-1,3.4223542E-1,1.0705545E0,1.6489584E0,1.0369639E0,2.1869256E0,9.1994774E-1,1.9243088E0,1.0824287E0,1.8181518E0,2.8958573E0,1.9096472E0,3.6942601E0,1.1062431E0,2.7621956E0],"categories":[],"categories_nodes":[],"categories_segments":[],"categories_sizes":[],"default_left":[0,0,0,0,0,0,0,0,0,0,0,0,0,0,0,0,0,0,0,0,0,0,0,0,0,0,0,0,0,0,0,0,0,0,0,0,0,0,0,0,0,0,0,0,0,0,0,0,0,0,0,0,0,0,0,0,0,0,0,0,0],"id":2,"left_children":[1,3,5,7,9,11,13,15,17,19,21,23,25,27,29,-1,31,33,35,37,39,41,43,45,47,49,51,53,55,57,59,-1,-1,-1,-1,-1,-1,-1,-1,-1,-1,-1,-1,-1,-1,-1,-1,-1,-1,-1,-1,-1,-1,-1,-1,-1,-1,-1,-1,-1,-1],"loss_changes":[6.721183E5,7.602909E4,9.740272E4,6.4577188E3,1.2027234E4,1.4795391E4,3.0630625E4,9.6509375E2,1.3618594E3,2.9774258E3,4.026255E3,1.0389334E4,2.0339844E3,1.586125E4,2.8147969E3,0E0,5.196875E1,4.6558594E2,3.5927344E2,6.1835156E2,1.4515195E3,1.8081494E3,1.9413615E3,5.5124663E3,5.2786895E3,7.7399023E2,5.542793E2,6.506539E3,8.7804375E3,4.2112344E3,1.9855566E3,0E0,0E0,0E0,0E0,0E0,0E0,0E0,0E0,0E0,0E0,0E0,0E0,0E0,0E0,0E0,0E0,0E0,0E0,0E0,0E0,0E0,0E0,0E0,0E0,0E0,0E0,0E0,0E0,0E0,0E0],"parents":[2147483647,0,0,1,1,2,2,3,3,4,4,5,5,6,6,7,7,8,8,9,9,10,10,11,11,12,12,13,13,14,14,16,16,17,17,18,18,19,19,20,20,21,21,22,22,23,23,24,24,25,25,26,26,27,27,28,28,29,29,30,30],"right_children":[2,4,6,8,10,12,14,16,18,20,22,24,26,28,30,-1,32,34,36,38,40,42,44,46,48,50,52,54,56,58,60,-1,-1,-1,-1,-1,-1,-1,-1,-1,-1,-1,-1,-1,-1,-1,-1,-1,-1,-1,-1,-1,-1,-1,-1,-1,-1,-1,-1,-1,-1],"split_conditions":[1.533E1,7.27E0,2.291E1,3.99E0,1.097E1,1E0,1E0,2E0,3E0,2E0,4E0,1.937E1,2.021E1,4E0,5E0,-2.5006962E0,2.33E0,5.46E0,5.82E0,1E0,1E0,1E0,2E0,4E0,3E0,1.1E1,2E1,1.1E1,2.729E1,8E0,2E0,-2.27633E0,-1.9951922E0,-2.089752E0,-1.7327296E0,-1.6347799E0,-1.2752811E0,-1.4882461E0,-8.8664275E-1,-9.925017E-1,-3.2863674E-1,-7.5933444E-1,-8.721569E-2,-4.561821E-1,1.2266691E-1,-1.7045423E-1,5.0911593E-1,3.4223542E-1,1.0705545E0,1.6489584E0,1.0369639E0,2.1869256E0,9.1994774E-1,1.9243088E0,1.0824287E0,1.8181518E0,2.8958573E0,1.9096472E0,3.6942601E0,1.1062431E0,2.7621956E0],"split_indices":[0,0,0,0,0,3,3,7,7,7,5,0,0,5,2,0,0,0,0,3,3,3,7,5,5,1,1,1,0,1,5,0,0,0,0,0,0,0,0,0,0,0,0,0,0,0,0,0,0,0,0,0,0,0,0,0,0,0,0,0,0],"split_type":[0,0,0,0,0,0,0,0,0,0,0,0,0,0,0,0,0,0,0,0,0,0,0,0,0,0,0,0,0,0,0,0,0,0,0,0,0,0,0,0,0,0,0,0,0,0,0,0,0,0,0,0,0,0,0,0,0,0,0,0,0],"sum_hessian":[4E3,1.954E3,2.046E3,8.88E2,1.066E3,1.076E3,9.7E2,4.38E2,4.5E2,5.03E2,5.63E2,9.15E2,1.61E2,7.89E2,1.81E2,1.82E2,2.56E2,2.62E2,1.88E2,1.97E2,3.06E2,3.27E2,2.36E2,4.81E2,4.34E2,1.13E2,4.8E1,4.55E2,3.34E2,1.28E2,5.3E1,1.13E2,1.43E2,1.11E2,1.51E2,1.15E2,7.3E1,1.72E2,2.5E1,2.67E2,3.9E1,2.8E2,4.7E1,9.9E1,1.37E2,2.66E2,2.15E2,1.57E2,2.77E2,3.5E1,7.8E1,4.2E1,6E0,1.32E2,3.23E2,2.04E2,1.3E2,1.9E1,1.09E2,1.1E1,4.2E1],"tree_param":{"num_deleted":"0","num_feature":"8","num_nodes":"61","size_leaf_vector":"1"}},{"base_weights":[4.8744576E-3,-1.1322012E1,1.2056118E1,-1.7267937E1,-5.3420033E0,6.3878355E0,1.8275728E1,-2.028111E1,-1.444144E1,-8.328784E0,-2.562966E0,4.9456563E0,1.4246984E1,1.5728282E1,2.932195E1,-2.1654049E1,-1.8018084E1,-1.6654554E1,-1.2935119E1,-9.292193E0,-4.3715534E0,-7.8448706E0,-1.1930776E0,2.1512325E0,8.571161E0,1.194465E1,1.818611E1,1.0253327E1,1.9116232E1,3.137985E1,1.9338018E1,-2.3456373E0,-2.06329E0,-1.9860592E0,-1.6793054E0,-1.8906201E0,-1.5379733E0,-1.3581498E0,-8.271778E-1,-1.0035957E0,-4.261349E-1,-6.1642754E-1,-7.629888E-2,-9.091029E-1,4.4497135E-3,3.533257E-1,-2.8697646E-1,7.4616593E-1,-3.440873E-3,6.1007375E-1,1.2564383E0,1.7840079E0,6.5823746E-1,2.3489196E0,8.229103E-1,5.0268695E-3,1.151863E0,1.5210742E0,2.4871693E0,2.735058E0,4.4249845E0,2.1134393E0,5.410714E-1],"categories":[],"categories_nodes":[],"categories_segments":[],"categories_sizes":[],"default_left":[0,0,0,0,0,0,0,0,0,0,0,0,0,0,0,0,0,0,0,0,0,0,0,0,0,0,0,0,0,0,0,0,0,0,0,0,0,0,0,0,0,0,0,0,0,0,0,0,0,0,0,0,0,0,0,0,0,0,0,0,0,0,0],"id":3,"left_children":[1,3,5,7,9,11,13,15,17,19,21,23,25,27,29,31,33,35,37,39,41,43,45,47,49,51,53,55,57,59,61,-1,-1,-1,-1,-1,-1,-1,-1,-1,-1,-1,-1,-1,-1,-1,-1,-1,-1,-1,-1,-1,-1,-1,-1,-1,-1,-1,-1,-1,-1,-1,-1],"loss_changes":[5.4628525E5,7.326119E4,6.824172E4,8.513406E3,8.528037E3,1.14451875E4,2.5539875E4,1.157125E3,1.5747422E3,1.8503477E3,3.8616975E3,8.694389E3,1.2066348E3,1.3771281E4,2.9270781E3,7.7359375E1,1.04359375E2,3.235E2,8.6428906E2,1.4464531E3,6.357428E2,1.0818584E3,3.3860122E3,5.652714E3,3.612838E3,3.107086E3,2.763664E3,3.7433047E3,1.0051422E4,6.1015156E3,6.862451E2,0E0,0E0,0E0,0E0,0E0,0E0,0E0,0E0,0E0,0E0,0E0,0E0,0E0,0E0,0E0,0E0,0E0,0E0,0E0,0E0,0E0,0E0,0E0,0E0,0E0,0E0,0E0,0E0,0E0,0E0,0E0,0E0],"parents":[2147483647,0,0,1,1,2,2,3,3,4,4,5,5,6,6,7,7,8,8,9,9,10,10,11,11,12,12,13,13,14,14,15,15,16,16,17,17,18,18,19,19,20,20,21,21,22,22,23,23,24,24,25,25,26,26,27,27,28,28,29,29,30,30],"right_children":[2,4,6,8,10,12,14,16,18,20,22,24,26,28,30,32,34,36,38,40,42,44,46,48,50,52,54,56,58,60,62,-1,-1,-1,-1,-1,-1,-1,-1,-1,-1,-1,-1,-1,-1,-1,-1,-1,-1,-1,-1,-1,-1,-1,-1,-1,-1,-1,-1,-1,-1,-1,-1],"split_conditions":[1.606E1,8.28E0,2.32E1,4.44E0,1.201E1,1E0,1E0,3E0,2E0,4E0,1E0,4E0,1.7E1,3E0,2E1,2.22E0,2.33E0,5.82E0,1E0,1E0,1.069E1,1E0,1.1E1,1.1E1,2.044E1,1.1E1,2E1,8E0,2.729E1,1.7E1,1E0,-2.3456373E0,-2.06329E0,-1.9860592E0,-1.6793054E0,-1.8906201E0,-1.5379733E0,-1.3581498E0,-8.271778E-1,-1.0035957E0,-4.261349E-1,-6.1642754E-1,-7.629888E-2,-9.091029E-1,4.4497135E-3,3.533257E-1,-2.8697646E-1,7.4616593E-1,-3.440873E-3,6.1007375E-1,1.2564383E0,1.7840079E0,6.5823746E-1,2.3489196E0,8.229103E-1,5.0268695E-3,1.151863E0,1.5210742E0,2.4871693E0,2.735058E0,4.4249845E0,2.1134393E0,5.410714E-1],"split_indices":[0,0,0,0,0,3,3,7,7,7,7,5,1,5,1,0,0,0,3,3,0,3,1,1,0,1,1,1,0,1,6,0,0,0,0,0,0,0,0,0,0,0,0,0,0,0,0,0,0,0,0,0,0,0,0,0,0,0,0,0,0,0,0],"split_type":[0,0,0,0,0,0,0,0,0,0,0,0,0,0,0,0,0,0,0,0,0,0,0,0,0,0,0,0,0,0,0,0,0,0,0,0,0,0,0,0,0,0,0,0,0,0,0,0,0,0,0,0,0,0,0,0,0,0,0,0,0,0,0],"sum_hessian":[4E3,2.062E3,1.938E3,1.033E3,1.029E3,1.015E3,9.23E2,4.97E2,5.36E2,4.95E2,5.34E2,8.59E2,1.56E2,7.52E2,1.71E2,3.04E2,1.93E2,2.13E2,3.23E2,3.97E2,9.8E1,1.09E2,4.25E2,4.86E2,3.73E2,1.01E2,5.5E1,2.89E2,4.63E2,1.4E2,3.1E1,1.02E2,2.02E2,7.1E1,1.22E2,7.2E1,1.41E2,2.82E2,4.1E1,3.45E2,5.2E1,6.5E1,3.3E1,9.4E1,1.5E1,1.11E2,3.14E2,1.41E2,3.45E2,2.32E2,1.41E2,4.7E1,5.4E1,3.5E1,2E1,3.2E1,2.57E2,2.78E2,1.85E2,1.09E2,3.1E1,2.7E1,4E0],"tree_param":{"num_deleted":"0","num_feature":"8","num_nodes":"63","size_leaf_vector":"1"}},{"base_weights":[6.0253525E-3,-9.733845E0,1.1404417E1,-1.5323081E1,-4.130408E0,6.3156023E0,1.6464367E1,-1.7619722E1,-1.1916542E1,-6.5988927E0,-1.1161535E0,7.791008E0,3.2303235E-1,1.4162313E1,2.6446817E1,-1.9767014E1,-1.6194374E1,-1.4036403E1,-1.0411267E1,-8.302144E0,-4.3086915E0,-2.303528E0,5.4372044E0,5.2169304E0,1.7223429E1,-3.402678E0,2.4537978E0,2.0571505E1,1.1409515E1,2.8292646E1,1.7487171E1,-2.11205E0,-1.8127117E0,-1.7977371E0,-1.4733424E0,-1.4533573E0,-1.1488662E0,-1.1059363E0,-5.4479796E-1,-9.1891223E-1,-4.564126E-1,-7.1203655E-1,-2.0919132E-1,-9.840362E-2,-7.7836126E-1,3.9305574E-1,1.0346321E0,1.0663266E0,5.9861194E-2,2.327253E0,5.7898384E-1,-9.2154086E-1,-1.6933644E-1,1.5807085E-1,1.0723504E0,4.2349598E-1,3.027388E0,5.2087635E-1,1.7567214E0,2.4640386E0,3.9963143E0,1.9096435E0,4.9778557E-1],"categories":[],"categories_nodes":[],"categories_segments":[],"categories_sizes":[],"default_left":[0,0,0,0,0,0,0,0,0,0,0,0,0,0,0,0,0,0,0,0,0,0,0,0,0,0,0,0,0,0,0,0,0,0,0,0,0,0,0,0,0,0,0,0,0,0,0,0,0,0,0,0,0,0,0,0,0,0,0,0,0,0,0],"id":4,"left_children":[1,3,5,7,9,11,13,15,17,19,21,23,25,27,29,31,33,35,37,39,41,43,45,47,49,51,53,55,57,59,61,-1,-1,-1,-1,-1,-1,-1,-1,-1,-1,-1,-1,-1,-1,-1,-1,-1,-1,-1,-1,-1,-1,-1,-1,-1,-1,-1,-1,-1,-1,-1,-1],"loss_changes":[4.4429744E5,6.7522984E4,4.737742E4,8.239516E3,8.021086E3,8.1404844E3,2.085911E4,1.6478594E3,1.2515117E3,2.2773965E3,3.8020127E3,1.7852902E4,1.4611161E3,1.3050625E4,2.3497656E3,1.7648438E2,7.562422E2,5.9757812E1,7.7608594E2,1.0820273E3,1.5744834E3,2.978714E3,5.140564E2,1.463261E4,1.0793008E4,6.5009204E2,8.2781195E2,3.553504E4,2.010696E4,5.0252266E3,5.49126E2,0E0,0E0,0E0,0E0,0E0,0E0,0E0,0E0,0E0,0E0,0E0,0E0,0E0,0E0,0E0,0E0,0E0,0E0,0E0,0E0,0E0,0E0,0E0,0E0,0E0,0E0,0E0,0E0,0E0,0E0,0E0,0E0],"parents":[2147483647,0,0,1,1,2,2,3,3,4,4,5,5,6,6,7,7,8,8,9,9,10,10,11,11,12,12,13,13,14,14,15,15,16,16,17,17,18,18,19,19,20,20,21,21,22,22,23,23,24,24,25,25,26,26,27,27,28,28,29,29,30,30],"right_children":[2,4,6,8,10,12,14,16,18,20,22,24,26,28,30,32,34,36,38,40,42,44,46,48,50,52,54,56,58,60,62,-1,-1,-1,-1,-1,-1,-1,-1,-1,-1,-1,-1,-1,-1,-1,-1,-1,-1,-1,-1,-1,-1,-1,-1,-1,-1,-1,-1,-1,-1,-1,-1],"split_conditions":[1.685E1,8.7E0,2.32E1,5.46E0,1.299E1,2E1,1E0,2E0,2E0,4E0,1E0,1.7E1,2E0,1.1E1,2E1,3.15E0,3.01E0,1E0,1E0,4E0,2E0,2E1,5E0,1.1E1,5E0,2E0,1E0,8E0,1.7E1,1.7E1,1E0,-2.11205E0,-1.8127117E0,-1.7977371E0,-1.4733424E0,-1.4533573E0,-1.1488662E0,-1.1059363E0,-5.4479796E-1,-9.1891223E-1,-4.564126E-1,-7.1203655E-1,-2.0919132E-1,-9.840362E-2,-7.7836126E-1,3.9305574E-1,1.0346321E0,1.0663266E0,5.9861194E-2,2.327253E0,5.7898384E-1,-9.2154086E-1,-1.6933644E-1,1.5807085E-1,1.0723504E0,4.2349598E-1,3.027388E0,5.2087635E-1,1.7567214E0,2.4640386E0,3.9963143E0,1.9096435E0,4.9778557E-1],"split_indices":[0,0,0,0,0,1,3,7,7,5,3,1,7,1,1,0,0,3,3,7,7,1,5,1,2,5,3,1,1,1,6,0,0,0,0,0,0,0,0,0,0,0,0,0,0,0,0,0,0,0,0,0,0,0,0,0,0,0,0,0,0,0,0],"split_type":[0,0,0,0,0,0,0,0,0,0,0,0,0,0,0,0,0,0,0,0,0,0,0,0,0,0,0,0,0,0,0,0,0,0,0,0,0,0,0,0,0,0,0,0,0,0,0,0,0,0,0,0,0,0,0,0,0,0,0,0,0,0,0],"sum_hessian":[4E3,2.157E3,1.843E3,1.079E3,1.078E3,9.2E2,9.23E2,6.42E2,4.37E2,5.92E2,4.86E2,7.38E2,1.82E2,7.52E2,1.71E2,2.51E2,3.91E2,1.78E2,2.59E2,3.38E2,2.54E2,4.12E2,7.4E1,5.81E2,1.57E2,6.6E1,1.16E2,2.24E2,5.28E2,1.4E2,3.1E1,1.31E2,1.2E2,1.71E2,2.2E2,1.45E2,3.3E1,2.28E2,3.1E1,2.72E2,6.6E1,1.11E2,1.43E2,3.33E2,7.9E1,5.8E1,1.6E1,2.66E2,3.15E2,1.02E2,5.5E1,1.4E1,5.2E1,1.06E2,1E1,8.4E1,1.4E2,2.64E2,2.64E2,1.09E2,3.1E1,2.7E1,4E0],"tree_param":{"num_deleted":"0","num_feature":"8","num_nodes":"63","size_leaf_vector":"1"}},{"base_weights":[6.8159546E-3,-9.649419E0,9.359063E0,-1.4734572E1,-5.4585295E0,4.5516453E0,1.4612335E1,-1.6748178E1,-1.2741874E1,-8.144471E0,-3.1070187E0,3.3190765E0,1.1538584E1,1.2594817E1,2.3289404E1,-1.8348999E0,-1.5543125E1,-1.3984672E1,-1.0945061E1,-1.0610877E1,-6.527231E0,-5.0082593E0,-5.0244206E-1,-4.354894E-1,5.443953E0,6.359661E0,1.3464784E1,1.4546965E1,3.660648E0,1.8803057E1,2.6942976E1,-1.6196079E0,-1.3742675E0,-1.5556303E0,-1.2892357E0,-1.1965976E0,-9.1968006E-1,-1.119427E0,-6.320963E-1,-1.0573318E0,-5.641342E-1,-4.1578013E-1,-1.0519056E0,-3.2793805E-1,1.53491E-1,4.6657386E-1,-2.8583357E-1,6.663318E-1,-1.1548852E-1,8.384596E-1,-6.614647E-2,1.2098372E0,1.9350321E0,1.0877769E0,2.7783208E0,5.589214E-1,-4.8320493E-1,1.4289695E0,2.427202E0,3.3226948E0,2.203632E0],"categories":[],"categories_nodes":[],"categories_segments":[],"categories_sizes":[],"default_left":[0,0,0,0,0,0,0,0,0,0,0,0,0,0,0,0,0,0,0,0,0,0,0,0,0,0,0,0,0,0,0,0,0,0,0,0,0,0,0,0,0,0,0,0,0,0,0,0,0,0,0,0,0,0,0,0,0,0,0,0,0],"id":5,"left_children":[1,3,5,7,9,11,13,15,17,19,21,23,25,27,29,-1,31,33,35,37,39,41,43,45,47,49,51,53,55,57,59,-1,-1,-1,-1,-1,-1,-1,-1,-1,-1,-1,-1,-1,-1,-1,-1,-1,-1,-1,-1,-1,-1,-1,-1,-1,-1,-1,-1,-1,-1],"loss_changes":[3.6141062E5,4.1881562E4,5.127622E4,3.3537031E3,6.8023125E3,9.116135E3,1.6705125E4,5.616719E2,8.540625E2,1.941082E3,2.8596973E3,7.22245E3,1.5004941E3,1.3724992E4,2.4766016E3,0E0,7.955078E1,2.509336E2,2.2728125E2,4.2477734E2,1.0407588E3,1.5216221E3,1.3911459E3,4.067249E3,4.6585137E3,6.453258E2,6.9073047E2,3.1168797E4,2.369165E3,1.75125E3,2.289461E3,0E0,0E0,0E0,0E0,0E0,0E0,0E0,0E0,0E0,0E0,0E0,0E0,0E0,0E0,0E0,0E0,0E0,0E0,0E0,0E0,0E0,0E0,0E0,0E0,0E0,0E0,0E0,0E0,0E0,0E0],"parents":[2147483647,0,0,1,1,2,2,3,3,4,4,5,5,6,6,7,7,8,8,9,9,10,10,11,11,12,12,13,13,14,14,16,16,17,17,18,18,19,19,20,20,21,21,22,22,23,23,24,24,25,25,26,26,27,27,28,28,29,29,30,30],"right_children":[2,4,6,8,10,12,14,16,18,20,22,24,26,28,30,-1,32,34,36,38,40,42,44,46,48,50,52,54,56,58,60,-1,-1,-1,-1,-1,-1,-1,-1,-1,-1,-1,-1,-1,-1,-1,-1,-1,-1,-1,-1,-1,-1,-1,-1,-1,-1,-1,-1,-1,-1],"split_conditions":[1.545E1,7.27E0,2.291E1,3.99E0,1.097E1,1E0,1E0,2E0,3E0,2E0,4E0,3E0,1.741E1,2E1,2.586E1,-1.8348999E0,4E0,5.36E0,5.82E0,1E0,2E0,1E0,2E0,1.1E1,1E0,1E0,2.164E1,1.7E1,1E0,4E0,3E0,-1.6196079E0,-1.3742675E0,-1.5556303E0,-1.2892357E0,-1.1965976E0,-9.1968006E-1,-1.119427E0,-6.320963E-1,-1.0573318E0,-5.641342E-1,-4.1578013E-1,-1.0519056E0,-3.2793805E-1,1.53491E-1,4.6657386E-1,-2.8583357E-1,6.663318E-1,-1.1548852E-1,8.384596E-1,-6.614647E-2,1.2098372E0,1.9350321E0,1.0877769E0,2.7783208E0,5.589214E-1,-4.8320493E-1,1.4289695E0,2.427202E0,3.3226948E0,2.203632E0],"split_indices":[0,0,0,0,0,3,3,7,7,7,5,5,0,1,0,0,7,0,0,3,5,6,7,1,6,6,0,1,6,5,2,0,0,0,0,0,0,0,0,0,0,0,0,0,0,0,0,0,0,0,0,0,0,0,0,0,0,0,0,0,0],"split_type":[0,0,0,0,0,0,0,0,0,0,0,0,0,0,0,0,0,0,0,0,0,0,0,0,0,0,0,0,0,0,0,0,0,0,0,0,0,0,0,0,0,0,0,0,0,0,0,0,0,0,0,0,0,0,0,0,0,0,0,0,0],"sum_hessian":[4E3,1.968E3,2.032E3,8.88E2,1.08E3,1.062E3,9.7E2,4.38E2,4.5E2,5.03E2,5.77E2,9.04E2,1.58E2,7.89E2,1.81E2,1.82E2,2.56E2,2.62E2,1.88E2,1.97E2,3.06E2,3.33E2,2.44E2,3.27E2,5.77E2,4.4E1,1.14E2,6.47E2,1.42E2,8.4E1,9.7E1,1.82E2,7.4E1,1.02E2,1.6E2,1.15E2,7.3E1,1.72E2,2.5E1,5.3E1,2.53E2,2.9E2,4.3E1,1.03E2,1.41E2,1.05E2,2.22E2,4.87E2,9E1,3.4E1,1E1,9.5E1,1.9E1,5.08E2,1.39E2,1.16E2,2.6E1,4.8E1,3.6E1,4E1,5.7E1],"tree_param":{"num_deleted":"0","num_feature":"8","num_nodes":"61","size_leaf_vector":"1"}},{"base_weights":[6.926092E-3,-7.921429E0,9.285334E0,-1.2456036E1,-3.375279E0,6.5122213E0,1.5797872E1,-1.4295104E1,-9.727777E0,-5.20045E0,-6.9232243E-1,5.0953765E0,1.348858E1,1.051314E1,1.9158182E1,-1.6057905E1,-1.3125408E1,-1.1465414E1,-8.494065E0,-5.916901E0,-7.404723E-1,-1.8310162E0,5.530438E0,6.221694E0,-2.0802913E0,9.866309E0,1.7292868E1,8.093226E0,2.0345798E1,2.1528603E1,9.170731E0,-1.8059405E0,-1.5140761E0,-1.4646934E0,-1.1881843E0,-9.2154235E-1,-1.1986783E0,-9.0729886E-1,-4.0857005E-1,-7.8730696E-1,-4.478571E-1,7.044585E-2,-6.559332E-1,-2.1428531E-2,-5.715138E-1,1.1895181E-1,6.6338336E-1,1.09227E0,4.3963104E-1,1.0463522E-1,-6.04077E-1,7.5627995E-1,1.3938733E0,2.3579624E0,1.3525373E0,1.507656E0,5.411248E-1,2.9162972E0,1.3183602E0,1.7839135E0,3.3125348E0,1.179222E0,2.4156356E-2],"categories":[],"categories_nodes":[],"categories_segments":[],"categories_sizes":[],"default_left":[0,0,0,0,0,0,0,0,0,0,0,0,0,0,0,0,0,0,0,0,0,0,0,0,0,0,0,0,0,0,0,0,0,0,0,0,0,0,0,0,0,0,0,0,0,0,0,0,0,0,0,0,0,0,0,0,0,0,0,0,0,0,0],"id":6,"left_children":[1,3,5,7,9,11,13,15,17,19,21,23,25,27,29,31,33,35,37,39,41,43,45,47,49,51,53,55,57,59,61,-1,-1,-1,-1,-1,-1,-1,-1,-1,-1,-1,-1,-1,-1,-1,-1,-1,-1,-1,-1,-1,-1,-1,-1,-1,-1,-1,-1,-1,-1,-1,-1],"loss_changes":[2.943972E5,4.444511E4,3.319975E4,5.279797E3,5.2801035E3,1.273159E4,9.565672E3,1.1150781E3,8.415703E2,2.0470391E3,3.1137148E3,8.725424E3,2.833457E3,4.974879E3,7.7335156E3,1.8915234E2,5.676797E2,9.9515625E1,6.264785E2,1.5206699E3,7.613273E2,2.328499E3,3.17812E2,7.9496055E3,1.8266223E3,9.640039E2,2.1680352E3,3.1960176E3,2.2678418E3,1.0961242E4,1.5420605E3,0E0,0E0,0E0,0E0,0E0,0E0,0E0,0E0,0E0,0E0,0E0,0E0,0E0,0E0,0E0,0E0,0E0,0E0,0E0,0E0,0E0,0E0,0E0,0E0,0E0,0E0,0E0,0E0,0E0,0E0,0E0,0E0],"parents":[2147483647,0,0,1,1,2,2,3,3,4,4,5,5,6,6,7,7,8,8,9,9,10,10,11,11,12,12,13,13,14,14,15,15,16,16,17,17,18,18,19,19,20,20,21,21,22,22,23,23,24,24,25,25,26,26,27,27,28,28,29,29,30,30],"right_children":[2,4,6,8,10,12,14,16,18,20,22,24,26,28,30,32,34,36,38,40,42,44,46,48,50,52,54,56,58,60,62,-1,-1,-1,-1,-1,-1,-1,-1,-1,-1,-1,-1,-1,-1,-1,-1,-1,-1,-1,-1,-1,-1,-1,-1,-1,-1,-1,-1,-1,-1,-1,-1],"split_conditions":[1.685E1,8.7E0,2.594E1,5.46E0,1.337E1,1E0,3E0,2E0,2E0,1E0,1E0,1E0,2.164E1,1E0,2E1,2.33E0,3.01E0,1.1E1,1E0,2E0,1E0,5E0,1E0,1.1E1,4E0,1.7E1,1.1E1,1.1E1,3E0,1.7E1,1E0,-1.8059405E0,-1.5140761E0,-1.4646934E0,-1.1881843E0,-9.2154235E-1,-1.1986783E0,-9.0729886E-1,-4.0857005E-1,-7.8730696E-1,-4.478571E-1,7.044585E-2,-6.559332E-1,-2.1428531E-2,-5.715138E-1,1.1895181E-1,6.6338336E-1,1.09227E0,4.3963104E-1,1.0463522E-1,-6.04077E-1,7.5627995E-1,1.3938733E0,2.3579624E0,1.3525373E0,1.507656E0,5.411248E-1,2.9162972E0,1.3183602E0,1.7839135E0,3.3125348E0,1.179222E0,2.4156356E-2],"split_indices":[0,0,0,0,0,3,5,7,7,3,3,6,0,3,1,0,0,1,3,7,6,2,7,1,2,1,1,1,2,1,6,0,0,0,0,0,0,0,0,0,0,0,0,0,0,0,0,0,0,0,0,0,0,0,0,0,0,0,0,0,0,0,0],"split_type":[0,0,0,0,0,0,0,0,0,0,0,0,0,0,0,0,0,0,0,0,0,0,0,0,0,0,0,0,0,0,0,0,0,0,0,0,0,0,0,0,0,0,0,0,0,0,0,0,0,0,0,0,0,0,0,0,0,0,0,0,0,0,0],"sum_hessian":[4E3,2.157E3,1.843E3,1.079E3,1.078E3,1.294E3,5.49E2,6.42E2,4.37E2,6.41E2,4.37E2,1.077E3,2.17E2,2.15E2,3.34E2,2.51E2,3.91E2,1.78E2,2.59E2,5.52E2,8.9E1,3.7E2,6.7E1,9.31E2,1.46E2,1.13E2,1.04E2,1.74E2,4.1E1,2.69E2,6.5E1,7.3E1,1.78E2,1.71E2,2.2E2,3.7E1,1.41E2,2.28E2,3.1E1,2.32E2,3.2E2,7.2E1,1.7E1,2.62E2,1.08E2,1.4E1,5.3E1,2.59E2,6.72E2,8.2E1,6.4E1,7.4E1,3.9E1,3.7E1,6.7E1,4.7E1,1.27E2,1.7E1,2.4E1,2.06E2,6.3E1,5E1,1.5E1],"tree_param":{"num_deleted":"0","num_feature":"8","num_nodes":"63","size_leaf_vector":"1"}},{"base_weights":[8.341744E-3,-6.6107726E0,9.0821705E0,-1.0546708E1,-1.8460385E0,7.036886E0,1.54815E1,-1.2689252E1,-7.870715E0,-2.841985E0,3.4627972E0,5.564549E0,1.4311056E1,1.7428135E1,6.459822E0,-1.4257661E1,-1.1524129E1,-5.344183E0,-8.77713E0,-1.8285773E0,-7.05086E0,1.2088868E-1,5.8387847E0,3.0274513E0,8.830146E0,9.683857E0,1.6981369E1,1.3709816E1,2.8918793E1,8.636268E0,-1.3456872E0,-1.562258E0,-1.3190757E0,-1.2139248E0,-8.9306146E-1,-9.816023E-1,-3.3109698E-1,-1.0800396E0,-6.826303E-1,-3.754324E-1,5.1283324E-1,-9.449677E-1,-5.5640537E-1,-4.2226034E-1,2.199627E-1,4.4200334E-1,9.969985E-1,-6.2201965E-1,4.1777593E-1,1.0196809E0,2.4936965E-1,7.2052705E-1,1.387976E0,8.42037E-1,1.9043652E0,2.1484888E0,6.528707E-1,3.788211E0,1.3239826E0,1.156464E0,4.005881E-1,-3.4554112E-1,3.0980423E-1],"categories":[],"categories_nodes":[],"categories_segments":[],"categories_sizes":[],"default_left":[0,0,0,0,0,0,0,0,0,0,0,0,0,0,0,0,0,0,0,0,0,0,0,0,0,0,0,0,0,0,0,0,0,0,0,0,0,0,0,0,0,0,0,0,0,0,0,0,0,0,0,0,0,0,0,0,0,0,0,0,0,0,0],"id":7,"left_children":[1,3,5,7,9,11,13,15,17,19,21,23,25,27,29,31,33,35,37,39,41,43,45,47,49,51,53,55,57,59,61,-1,-1,-1,-1,-1,-1,-1,-1,-1,-1,-1,-1,-1,-1,-1,-1,-1,-1,-1,-1,-1,-1,-1,-1,-1,-1,-1,-1,-1,-1,-1,-1],"loss_changes":[2.4036292E5,4.3376562E4,2.198436E4,7.164375E3,5.5509473E3,1.3639914E4,7.052672E3,1.1185156E3,1.2492852E3,3.7533735E3,1.3173892E3,8.813512E3,2.4921094E3,1.3916719E4,1.2687532E3,2.2351953E2,5.4248047E2,1.3495151E3,1.564293E3,9.571488E3,5.5730566E2,6.413169E2,5.244636E2,6.4298457E3,4.0100352E3,7.4238525E2,2.2230938E3,1.4097305E4,1.0881836E4,7.40124E2,1.7008072E2,0E0,0E0,0E0,0E0,0E0,0E0,0E0,0E0,0E0,0E0,0E0,0E0,0E0,0E0,0E0,0E0,0E0,0E0,0E0,0E0,0E0,0E0,0E0,0E0,0E0,0E0,0E0,0E0,0E0,0E0,0E0,0E0],"parents":[2147483647,0,0,1,1,2,2,3,3,4,4,5,5,6,6,7,7,8,8,9,9,10,10,11,11,12,12,13,13,14,14,15,15,16,16,17,17,18,18,19,19,20,20,21,21,22,22,23,23,24,24,25,25,26,26,27,27,28,28,29,29,30,30],"right_children":[2,4,6,8,10,12,14,16,18,20,22,24,26,28,30,32,34,36,38,40,42,44,46,48,50,52,54,56,58,60,62,-1,-1,-1,-1,-1,-1,-1,-1,-1,-1,-1,-1,-1,-1,-1,-1,-1,-1,-1,-1,-1,-1,-1,-1,-1,-1,-1,-1,-1,-1,-1,-1],"split_conditions":[1.793E1,1.007E1,2.693E1,5.82E0,1E0,1E0,2E1,3.01E0,1.1E1,2E1,1.372E1,4E0,2.164E1,1.7E1,1E0,2E0,4E0,8E0,1.7E1,1.7E1,3E0,3E0,5E0,8E0,2E1,1.7E1,2E0,1.1E1,5E0,2E0,4E0,-1.562258E0,-1.3190757E0,-1.2139248E0,-8.9306146E-1,-9.816023E-1,-3.3109698E-1,-1.0800396E0,-6.826303E-1,-3.754324E-1,5.1283324E-1,-9.449677E-1,-5.5640537E-1,-4.2226034E-1,2.199627E-1,4.4200334E-1,9.969985E-1,-6.2201965E-1,4.1777593E-1,1.0196809E0,2.4936965E-1,7.2052705E-1,1.387976E0,8.42037E-1,1.9043652E0,2.1484888E0,6.528707E-1,3.788211E0,1.3239826E0,1.156464E0,4.005881E-1,-3.4554112E-1,3.0980423E-1],"split_indices":[0,0,0,0,3,3,1,0,1,1,0,5,0,1,6,7,7,1,1,1,5,5,5,1,1,1,5,1,2,4,5,0,0,0,0,0,0,0,0,0,0,0,0,0,0,0,0,0,0,0,0,0,0,0,0,0,0,0,0,0,0,0,0],"split_type":[0,0,0,0,0,0,0,0,0,0,0,0,0,0,0,0,0,0,0,0,0,0,0,0,0,0,0,0,0,0,0,0,0,0,0,0,0,0,0,0,0,0,0,0,0,0,0,0,0,0,0,0,0,0,0,0,0,0,0,0,0,0,0],"sum_hessian":[4E3,2.313E3,1.687E3,1.266E3,1.047E3,1.28E3,4.07E2,7.01E2,5.65E2,8.82E2,1.65E2,1.066E3,2.14E2,3.34E2,7.3E1,2.94E2,4.07E2,1.51E2,4.14E2,7.12E2,1.7E2,6.9E1,9.6E1,6.01E2,4.65E2,8E1,1.34E2,2.54E2,8E1,5.7E1,1.6E1,1.23E2,1.71E2,3.26E2,8.1E1,4.6E1,1.05E2,2.01E2,2.13E2,5.58E2,1.54E2,6.3E1,1.07E2,2.2E1,4.7E1,7.3E1,2.3E1,6.6E1,5.35E2,3.82E2,8.3E1,5.2E1,2.8E1,2.7E1,1.07E2,1.21E2,1.33E2,5E1,3E1,3.4E1,2.3E1,1.1E1,5E0],"tree_param":{"num_deleted":"0","num_feature":"8","num_nodes":"63","size_leaf_vector":"1"}},{"base_weights":[9.2981905E-3,-5.826473E0,8.379578E0,-9.498402E0,-1.5607586E0,6.189254E0,1.3128835E1,-1.1427432E1,-7.089077E0,-2.4381025E0,3.1139066E0,7.578642E0,2.6041442E-1,1.4837092E1,4.252217E0,-1.2675053E1,-1.0220621E1,-8.89756E0,-5.833765E0,-3.9694202E0,-5.589734E-2,1.0590956E-1,5.1085787E0,5.053306E0,1.6851143E1,1.5232519E0,-6.750485E0,2.0671839E1,1.2047002E1,1.0479928E1,-5.8787193E0,-1.3944418E0,-1.1710428E0,-1.0786942E0,-7.7897894E-1,-6.8612957E-1,-9.5443165E-1,-9.129759E-1,-5.0722235E-1,-5.604314E-1,-1.667797E-1,-3.0093592E-1,1.700813E-1,-3.8187024E-1,1.9842462E-1,6.2050027E-1,-1.2305572E-2,1.0430974E0,4.9001496E-2,2.244557E0,5.5765045E-1,-4.1863646E-2,4.4551203E-1,-8.979719E-1,-2.6301455E-1,5.3463805E-1,2.9221575E0,6.629622E-1,1.7347172E0,1.5475978E0,-2.0406833E-1,-9.8477596E-1,2.9546118E-1],"categories":[],"categories_nodes":[],"categories_segments":[],"categories_sizes":[],"default_left":[0,0,0,0,0,0,0,0,0,0,0,0,0,0,0,0,0,0,0,0,0,0,0,0,0,0,0,0,0,0,0,0,0,0,0,0,0,0,0,0,0,0,0,0,0,0,0,0,0,0,0,0,0,0,0,0,0,0,0,0,0,0,0],"id":8,"left_children":[1,3,5,7,9,11,13,15,17,19,21,23,25,27,29,31,33,35,37,39,41,43,45,47,49,51,53,55,57,59,61,-1,-1,-1,-1,-1,-1,-1,-1,-1,-1,-1,-1,-1,-1,-1,-1,-1,-1,-1,-1,-1,-1,-1,-1,-1,-1,-1,-1,-1,-1,-1,-1],"loss_changes":[1.9548581E5,3.691947E4,1.7020305E4,5.807578E3,4.4862E3,9.281641E3,7.791633E3,9.2741406E2,1.2330352E3,3.355858E3,1.0374534E3,2.1293824E4,1.9138125E3,6.816258E3,5.424475E3,2.542461E2,4.143125E2,2.3741406E2,7.995742E2,2.0978828E3,1.8781223E3,5.2359924E2,5.9731665E2,1.7639047E4,1.2174477E4,1.0437501E3,2.7949377E2,1.8056746E4,8.384051E3,3.3469214E3,1.1860712E3,0E0,0E0,0E0,0E0,0E0,0E0,0E0,0E0,0E0,0E0,0E0,0E0,0E0,0E0,0E0,0E0,0E0,0E0,0E0,0E0,0E0,0E0,0E0,0E0,0E0,0E0,0E0,0E0,0E0,0E0,0E0,0E0],"parents":[2147483647,0,0,1,1,2,2,3,3,4,4,5,5,6,6,7,7,8,8,9,9,10,10,11,11,12,12,13,13,14,14,15,15,16,16,17,17,18,18,19,19,20,20,21,21,22,22,23,23,24,24,25,25,26,26,27,27,28,28,29,29,30,30],"right_children":[2,4,6,8,10,12,14,16,18,20,22,24,26,28,30,32,34,36,38,40,42,44,46,48,50,52,54,56,58,60,62,-1,-1,-1,-1,-1,-1,-1,-1,-1,-1,-1,-1,-1,-1,-1,-1,-1,-1,-1,-1,-1,-1,-1,-1,-1,-1,-1,-1,-1,-1,-1,-1],"split_conditions":[1.826E1,1.007E1,2.617E1,5.82E0,1E0,2E1,1E0,3.34E0,2E0,3E0,1.372E1,1.7E1,1E0,1.1E1,2E0,2E0,4E0,1.1E1,2E0,4E0,1.288E1,3E0,1E0,1.1E1,5E0,4E0,4E0,8E0,1.7E1,2E1,1.6E1,-1.3944418E0,-1.1710428E0,-1.0786942E0,-7.7897894E-1,-6.8612957E-1,-9.5443165E-1,-9.129759E-1,-5.0722235E-1,-5.604314E-1,-1.667797E-1,-3.0093592E-1,1.700813E-1,-3.8187024E-1,1.9842462E-1,6.2050027E-1,-1.2305572E-2,1.0430974E0,4.9001496E-2,2.244557E0,5.5765045E-1,-4.1863646E-2,4.4551203E-1,-8.979719E-1,-2.6301455E-1,5.3463805E-1,2.9221575E0,6.629622E-1,1.7347172E0,1.5475978E0,-2.0406833E-1,-9.8477596E-1,2.9546118E-1],"split_indices":[0,0,0,0,3,1,6,0,7,7,0,1,6,1,4,7,7,1,5,5,0,5,6,1,2,5,5,1,1,1,1,0,0,0,0,0,0,0,0,0,0,0,0,0,0,0,0,0,0,0,0,0,0,0,0,0,0,0,0,0,0,0,0],"split_type":[0,0,0,0,0,0,0,0,0,0,0,0,0,0,0,0,0,0,0,0,0,0,0,0,0,0,0,0,0,0,0,0,0,0,0,0,0,0,0,0,0,0,0,0,0,0,0,0,0,0,0,0,0,0,0,0,0,0,0,0,0,0,0],"sum_hessian":[4E3,2.357E3,1.643E3,1.266E3,1.091E3,1.126E3,5.17E2,7.01E2,5.65E2,9.19E2,1.72E2,9.12E2,2.14E2,4.33E2,8.4E1,3.4E2,3.61E2,2.29E2,3.36E2,5.59E2,3.6E2,6.9E1,1.03E2,7.18E2,1.94E2,1.82E2,3.2E1,1.38E2,2.95E2,5.2E1,3.2E1,1.41E2,1.99E2,2.9E2,7.1E1,5.8E1,1.71E2,6.1E1,2.75E2,3.26E2,2.33E2,1.34E2,2.26E2,2.2E1,4.7E1,8.5E1,1.8E1,3.29E2,3.89E2,1.29E2,6.5E1,1.1E2,7.2E1,2E1,1.2E1,5E1,8.8E1,1.47E2,1.48E2,3.7E1,1.5E1,2.2E1,1E1],"tree_param":{"num_deleted":"0","num_feature":"8","num_nodes":"63","size_leaf_vector":"1"}},{"base_weights":[8.800325E-3,-6.4122124E0,6.2276716E0,-9.812456E0,-3.6836696E0,2.174682E0,9.37534E0,-1.1415071E1,-8.774576E0,-4.5349507E0,-3.0039644E-1,-1.3110473E0,4.030794E0,3.580988E-1,1.0581455E1,-1.1856372E1,-9.057404E-1,-1.0921982E1,-8.175099E0,-5.2041225E0,-4.4557214E-1,5.350947E-1,-5.850375E0,2.7484932E0,-3.0904236E0,2.0004442E0,6.8666964E0,-3.303891E0,5.193304E0,2.2673132E1,7.278705E0,-1.2958939E0,-1.1051992E0,-1.2130245E0,-9.248087E-1,-8.600216E-1,-5.4598045E-1,-8.42597E-1,-4.358912E-1,3.0559275E-1,-2.0282805E-1,-9.7996734E-2,4.078428E-1,-7.1845096E-1,4.612255E-2,-8.751797E-1,9.301963E-1,-6.401087E-1,1.5804349E-2,3.1185386E-1,-2.8700644E-1,8.0901974E-1,2.0066486E-1,-1.635892E-1,-9.665144E-1,6.6523796E-1,-6.5958804E-1,2.9006507E0,5.722914E-1,2.9189742E-1,1.1417027E0],"categories":[],"categories_nodes":[],"categories_segments":[],"categories_sizes":[],"default_left":[0,0,0,0,0,0,0,0,0,0,0,0,0,0,0,0,0,0,0,0,0,0,0,0,0,0,0,0,0,0,0,0,0,0,0,0,0,0,0,0,0,0,0,0,0,0,0,0,0,0,0,0,0,0,0,0,0,0,0,0,0],"id":9,"left_children":[1,3,5,7,9,11,13,15,17,19,21,23,25,27,29,31,-1,33,35,37,39,41,43,45,47,49,51,53,55,57,59,-1,-1,-1,-1,-1,-1,-1,-1,-1,-1,-1,-1,-1,-1,-1,-1,-1,-1,-1,-1,-1,-1,-1,-1,-1,-1,-1,-1,-1,-1],"loss_changes":[1.5980569E5,1.8231664E4,2.591554E4,1.3569062E3,3.1494863E3,5.7635005E3,1.2438156E4,2.4740234E2,6.0071875E2,2.389379E3,1.0278982E3,2.2477637E3,3.331588E3,2.4252383E3,4.013018E4,1.0865234E2,0E0,1.1838379E2,4.413203E2,2.0083496E3,6.9338794E2,1.040092E3,2.4750891E2,7.241255E3,2.324001E3,1.8604843E3,1.4227637E3,8.118129E2,1.0587555E3,2.3022062E4,1.4291992E4,0E0,0E0,0E0,0E0,0E0,0E0,0E0,0E0,0E0,0E0,0E0,0E0,0E0,0E0,0E0,0E0,0E0,0E0,0E0,0E0,0E0,0E0,0E0,0E0,0E0,0E0,0E0,0E0,0E0,0E0],"parents":[2147483647,0,0,1,1,2,2,3,3,4,4,5,5,6,6,7,7,8,8,9,9,10,10,11,11,12,12,13,13,14,14,15,15,17,17,18,18,19,19,20,20,21,21,22,22,23,23,24,24,25,25,26,26,27,27,28,28,29,29,30,30],"right_children":[2,4,6,8,10,12,14,16,18,20,22,24,26,28,30,32,-1,34,36,38,40,42,44,46,48,50,52,54,56,58,60,-1,-1,-1,-1,-1,-1,-1,-1,-1,-1,-1,-1,-1,-1,-1,-1,-1,-1,-1,-1,-1,-1,-1,-1,-1,-1,-1,-1,-1,-1],"split_conditions":[1.545E1,7.13E0,2.164E1,3.34E0,4E0,3E0,8E0,4E0,1E0,1E0,1E0,1.1E1,3E0,4E0,1.1E1,2.03E0,-9.057404E-1,4E0,1E0,2E0,1.1E1,1.299E1,5E0,8E0,1.7E1,2E1,2E1,1E0,1E0,5E0,1.7E1,-1.2958939E0,-1.1051992E0,-1.2130245E0,-9.248087E-1,-8.600216E-1,-5.4598045E-1,-8.42597E-1,-4.358912E-1,3.0559275E-1,-2.0282805E-1,-9.7996734E-2,4.078428E-1,-7.1845096E-1,4.612255E-2,-8.751797E-1,9.301963E-1,-6.401087E-1,1.5804349E-2,3.1185386E-1,-2.8700644E-1,8.0901974E-1,2.0066486E-1,-1.635892E-1,-9.665144E-1,6.6523796E-1,-6.5958804E-1,2.9006507E0,5.722914E-1,2.9189742E-1,1.1417027E0],"split_indices":[0,0,0,0,7,5,1,7,7,3,6,1,7,5,1,0,0,5,3,5,1,0,5,1,1,1,1,6,6,2,1,0,0,0,0,0,0,0,0,0,0,0,0,0,0,0,0,0,0,0,0,0,0,0,0,0,0,0,0,0,0],"split_type":[0,0,0,0,0,0,0,0,0,0,0,0,0,0,0,0,0,0,0,0,0,0,0,0,0,0,0,0,0,0,0,0,0,0,0,0,0,0,0,0,0,0,0,0,0,0,0,0,0,0,0,0,0,0,0,0,0,0,0,0,0],"sum_hessian":[4E3,1.968E3,2.032E3,8.75E2,1.093E3,8.89E2,1.143E3,3.4E2,5.35E2,8.73E2,2.2E2,3.09E2,5.8E2,1.35E2,1.008E3,2.83E2,5.7E1,1.13E2,4.22E2,7.5E2,1.23E2,1.92E2,2.8E1,9.4E1,2.15E2,3.39E2,2.41E2,7.7E1,5.8E1,2.15E2,7.93E2,1.13E2,1.7E2,6.2E1,5.1E1,3.63E2,5.9E1,1.54E2,5.96E2,3.8E1,8.5E1,1.35E2,5.7E1,2.3E1,5E0,3.4E1,6E1,1.06E2,1.09E2,2.76E2,6.3E1,1.92E2,4.9E1,6.2E1,1.5E1,5.2E1,6E0,1.56E2,5.9E1,3.87E2,4.06E2],"tree_param":{"num_deleted":"0","num_feature":"8","num_nodes":"61","size_leaf_vector":"1"}},{"base_weights":[6.885255E-3,-4.7485085E0,6.827574E0,-7.562625E0,-1.0110973E0,5.488531E0,1.3502756E1,-9.142667E0,-5.4564857E0,-2.2488853E-1,-5.237409E0,-2.5371535E0,6.5735674E0,1.0584517E1,1.863567E1,-1.0017933E1,-7.776661E0,-7.1571083E0,-4.2822747E0,2.7899172E0,-1.4592006E0,-1.05239E1,-3.9771621E0,-5.319016E0,8.349103E-1,1.747132E1,3.86765E0,3.9849458E0,1.17458725E1,2.2110138E1,1.3677395E1,-1.1613556E0,-9.4588774E-1,-8.7112314E-1,-6.4235705E-1,-5.423782E-1,-7.733598E-1,-4.84341E-1,-2.2863915E-2,-5.2591366E-1,7.145021E-1,-4.3614537E-1,1.4193675E-1,-7.7739805E-1,-1.3111382E0,-2.0736285E-1,-7.081501E-1,-4.0077382E-1,-1.0714048E0,-2.2684531E-1,4.8533866E-1,2.3163013E0,1.7911713E-1,2.0083541E-2,7.3496133E-1,-2.3356247E-1,5.814903E-1,2.250387E0,8.637738E-1,2.4892614E0,9.8333454E-1,1.5711801E0,4.2461058E-1],"categories":[],"categories_nodes":[],"categories_segments":[],"categories_sizes":[],"default_left":[0,0,0,0,0,0,0,0,0,0,0,0,0,0,0,0,0,0,0,0,0,0,0,0,0,0,0,0,0,0,0,0,0,0,0,0,0,0,0,0,0,0,0,0,0,0,0,0,0,0,0,0,0,0,0,0,0,0,0,0,0,0,0],"id":10,"left_children":[1,3,5,7,9,11,13,15,17,19,21,23,25,27,29,31,33,35,37,39,41,43,45,47,49,51,53,55,57,59,61,-1,-1,-1,-1,-1,-1,-1,-1,-1,-1,-1,-1,-1,-1,-1,-1,-1,-1,-1,-1,-1,-1,-1,-1,-1,-1,-1,-1,-1,-1,-1,-1],"loss_changes":[1.2980509E5,2.4792645E4,1.4620547E4,4.4259844E3,3.3681042E3,1.19555625E4,3.9070195E3,8.391367E2,1.1255508E3,3.1894277E3,1.01744824E3,1.542862E3,3.5554434E4,1.3098027E3,1.3858711E3,3.0405078E2,3.284668E2,1.9287695E2,7.8364307E2,8.766138E3,5.085624E3,1.1153345E2,7.535134E2,5.937556E2,9.463191E2,2.1377695E4,1.2370438E4,3.3743976E2,4.821211E3,1.6681738E3,7.583296E2,0E0,0E0,0E0,0E0,0E0,0E0,0E0,0E0,0E0,0E0,0E0,0E0,0E0,0E0,0E0,0E0,0E0,0E0,0E0,0E0,0E0,0E0,0E0,0E0,0E0,0E0,0E0,0E0,0E0,0E0,0E0,0E0],"parents":[2147483647,0,0,1,1,2,2,3,3,4,4,5,5,6,6,7,7,8,8,9,9,10,10,11,11,12,12,13,13,14,14,15,15,16,16,17,17,18,18,19,19,20,20,21,21,22,22,23,23,24,24,25,25,26,26,27,27,28,28,29,29,30,30],"right_children":[2,4,6,8,10,12,14,16,18,20,22,24,26,28,30,32,34,36,38,40,42,44,46,48,50,52,54,56,58,60,62,-1,-1,-1,-1,-1,-1,-1,-1,-1,-1,-1,-1,-1,-1,-1,-1,-1,-1,-1,-1,-1,-1,-1,-1,-1,-1,-1,-1,-1,-1,-1,-1],"split_conditions":[1.826E1,1.069E1,1E0,6.35E0,1E0,8E0,2.586E1,3E0,2E0,1.1E1,2E0,4E0,1.1E1,8E0,4E0,2.33E0,4.21E0,1.1E1,1E0,8E0,1.7E1,2E0,4E0,1E0,2.368E1,5E0,1.7E1,2E0,1.1E1,2E1,1E0,-1.1613556E0,-9.4588774E-1,-8.7112314E-1,-6.4235705E-1,-5.423782E-1,-7.733598E-1,-4.84341E-1,-2.2863915E-2,-5.2591366E-1,7.145021E-1,-4.3614537E-1,1.4193675E-1,-7.7739805E-1,-1.3111382E0,-2.0736285E-1,-7.081501E-1,-4.0077382E-1,-1.0714048E0,-2.2684531E-1,4.8533866E-1,2.3163013E0,1.7911713E-1,2.0083541E-2,7.3496133E-1,-2.3356247E-1,5.814903E-1,2.250387E0,8.637738E-1,2.4892614E0,9.8333454E-1,1.5711801E0,4.2461058E-1],"split_indices":[0,0,3,0,6,1,0,7,7,1,5,5,1,1,2,0,0,1,3,1,1,4,2,6,0,2,1,5,1,1,6,0,0,0,0,0,0,0,0,0,0,0,0,0,0,0,0,0,0,0,0,0,0,0,0,0,0,0,0,0,0,0,0],"split_type":[0,0,0,0,0,0,0,0,0,0,0,0,0,0,0,0,0,0,0,0,0,0,0,0,0,0,0,0,0,0,0,0,0,0,0,0,0,0,0,0,0,0,0,0,0,0,0,0,0,0,0,0,0,0,0,0,0,0,0,0,0,0,0],"sum_hessian":[4E3,2.357E3,1.643E3,1.344E3,1.013E3,1.37E3,2.73E2,7.66E2,5.78E2,8.55E2,1.58E2,1.63E2,1.207E3,1.76E2,9.7E1,4.63E2,3.03E2,2.34E2,3.44E2,2.48E2,6.07E2,2.9E1,1.29E2,8.9E1,7.4E1,2.39E2,9.68E2,2.7E1,1.49E2,5.5E1,4.2E1,1.15E2,3.48E2,1.76E2,1.27E2,6.1E1,1.73E2,3.02E2,4.2E1,8.7E1,1.61E2,3.02E2,3.05E2,1.6E1,1.3E1,8.1E1,4.8E1,7.3E1,1.6E1,4.2E1,3.2E1,1.75E2,6.4E1,4.72E2,4.96E2,6E0,2.1E1,3.2E1,1.17E2,4.4E1,1.1E1,3.4E1,8E0],"tree_param":{"num_deleted":"0","num_feature":"8","num_nodes":"63","size_leaf_vector":"1"}},{"base_weights":[6.7998585E-3,-5.40579E0,4.9188895E0,-7.9716296E0,-3.216206E0,2.496455E0,8.959268E0,-8.897009E0,-6.7346625E0,-4.001122E0,1.7094698E-2,-3.544554E0,3.3378305E0,4.6013336E0,1.1757683E1,-9.339317E0,-6.8435698E0,-8.1683E0,-5.706171E0,-3.2635703E0,-7.1325474E0,-1.2072558E0,3.6658044E0,-4.9259586E0,3.193046E0,1.1605045E1,1.3208818E0,5.947844E0,-3.43037E0,1.3499564E1,3.8845756E0,-1.0858719E0,-8.854721E-1,-8.1919163E-1,-6.1574584E-1,-1.0124911E0,-7.496942E-1,-6.5736896E-1,-4.3414918E-1,-4.6956897E-1,1.5035404E-1,-7.8786814E-1,-4.090146E-1,-2.4962728E-1,1.24763004E-1,8.459368E-1,1.4335041E-1,-8.1950676E-1,-3.1809592E-1,3.9644906E-1,-2.4267435E-1,1.5301024E0,1.7995611E-1,-1.8240319E-1,4.2981988E-1,8.043119E-1,1.0019839E-1,3.2524806E-1,-1.2746507E0,1.0789299E0,2.2708898E0,1.7702045E-1,1.3288609E0],"categories":[],"categories_nodes":[],"categories_segments":[],"categories_sizes":[],"default_left":[0,0,0,0,0,0,0,0,0,0,0,0,0,0,0,0,0,0,0,0,0,0,0,0,0,0,0,0,0,0,0,0,0,0,0,0,0,0,0,0,0,0,0,0,0,0,0,0,0,0,0,0,0,0,0,0,0,0,0,0,0,0,0],"id":11,"left_children":[1,3,5,7,9,11,13,15,17,19,21,23,25,27,29,31,33,35,37,39,41,43,45,47,49,51,53,55,57,59,61,-1,-1,-1,-1,-1,-1,-1,-1,-1,-1,-1,-1,-1,-1,-1,-1,-1,-1,-1,-1,-1,-1,-1,-1,-1,-1,-1,-1,-1,-1,-1,-1],"loss_changes":[1.0640167E5,1.0671258E4,2.0511914E4,9.428047E2,2.6115361E3,6.685491E3,9.531414E3,3.8839844E2,5.1221875E2,1.8890625E3,9.068202E2,1.5142124E3,1.9210422E4,3.362169E3,6.502867E3,2.0352344E2,3.4668945E1,1.2901367E2,2.3665039E2,4.594852E3,3.241704E2,4.8410162E2,5.336078E2,7.383474E2,1.3101074E2,8.1628965E3,8.697079E3,2.7381172E3,2.8430835E3,9.514234E3,1.7262347E3,0E0,0E0,0E0,0E0,0E0,0E0,0E0,0E0,0E0,0E0,0E0,0E0,0E0,0E0,0E0,0E0,0E0,0E0,0E0,0E0,0E0,0E0,0E0,0E0,0E0,0E0,0E0,0E0,0E0,0E0,0E0,0E0],"parents":[2147483647,0,0,1,1,2,2,3,3,4,4,5,5,6,6,7,7,8,8,9,9,10,10,11,11,12,12,13,13,14,14,15,15,16,16,17,17,18,18,19,19,20,20,21,21,22,22,23,23,24,24,25,25,26,26,27,27,28,28,29,29,30,30],"right_children":[2,4,6,8,10,12,14,16,18,20,22,24,26,28,30,32,34,36,38,40,42,44,46,48,50,52,54,56,58,60,62,-1,-1,-1,-1,-1,-1,-1,-1,-1,-1,-1,-1,-1,-1,-1,-1,-1,-1,-1,-1,-1,-1,-1,-1,-1,-1,-1,-1,-1,-1,-1,-1],"split_conditions":[1.495E1,7.13E0,2.431E1,4.44E0,4E0,8E0,3E0,4E0,3E0,2E1,1.299E1,1E0,1.1E1,1E0,2E1,1E0,2.14E0,1E0,1.7E1,1.7E1,5E0,1.7E1,2E0,3E0,2E0,5E0,1.7E1,5E0,2E0,1.7E1,1E0,-1.0858719E0,-8.854721E-1,-8.1919163E-1,-6.1574584E-1,-1.0124911E0,-7.496942E-1,-6.5736896E-1,-4.3414918E-1,-4.6956897E-1,1.5035404E-1,-7.8786814E-1,-4.090146E-1,-2.4962728E-1,1.24763004E-1,8.459368E-1,1.4335041E-1,-8.1950676E-1,-3.1809592E-1,3.9644906E-1,-2.4267435E-1,1.5301024E0,1.7995611E-1,-1.8240319E-1,4.2981988E-1,8.043119E-1,1.0019839E-1,3.2524806E-1,-1.2746507E0,1.0789299E0,2.2708898E0,1.7702045E-1,1.3288609E0],"split_indices":[0,0,0,0,7,1,5,7,5,1,0,3,1,6,1,7,0,7,1,1,5,1,2,5,4,2,1,2,4,1,3,0,0,0,0,0,0,0,0,0,0,0,0,0,0,0,0,0,0,0,0,0,0,0,0,0,0,0,0,0,0,0,0],"split_type":[0,0,0,0,0,0,0,0,0,0,0,0,0,0,0,0,0,0,0,0,0,0,0,0,0,0,0,0,0,0,0,0,0,0,0,0,0,0,0,0,0,0,0,0,0,0,0,0,0,0,0,0,0,0,0,0,0,0,0,0,0,0,0],"sum_hessian":[4E3,1.903E3,2.097E3,8.75E2,1.028E3,1.312E3,7.85E2,4.97E2,3.78E2,8.27E2,2.01E2,1.6E2,1.152E3,3.08E2,4.77E2,4.06E2,9.1E1,1.55E2,2.23E2,6.71E2,1.56E2,1.51E2,5E1,1.33E2,2.7E1,2.25E2,9.27E2,2.64E2,4.4E1,3.9E2,8.7E1,9.3E1,3.13E2,2.7E1,6.4E1,3.6E1,1.19E2,1.34E2,8.9E1,5.16E2,1.55E2,1.24E2,3.2E1,9.9E1,5.2E1,1.5E1,3.5E1,4.5E1,8.8E1,2.4E1,3E0,1.63E2,6.2E1,4.51E2,4.76E2,1.85E2,7.9E1,2.6E1,1.8E1,3.03E2,8.7E1,7.2E1,1.5E1],"tree_param":{"num_deleted":"0","num_feature":"8","num_nodes":"63","size_leaf_vector":"1"}},{"base_weights":[5.8380333E-3,-3.8563356E0,5.6494536E0,-6.1827164E0,-8.206395E-1,7.01626E0,-3.6600518E-1,-7.767378E0,-4.8648853E0,1.02772415E-1,-4.569109E0,4.689399E0,1.5528843E1,7.6452726E-1,-5.944989E0,-8.222875E0,-5.8023605E0,-7.396195E0,-4.221667E0,-1.6503186E0,6.5236297E0,-5.4706187E0,8.419995E-1,9.015176E0,8.6269444E-1,2.1259716E1,4.4349446E0,-3.0504766E-1,6.440901E0,-9.812193E0,-3.896776E0,-8.5639346E-1,-6.27348E-1,-7.401982E-1,-5.2464074E-1,-4.1892752E-1,-8.465956E-1,-3.663995E-1,-6.950484E-1,1.653793E-1,-4.3852398E-1,1.0651606E0,-2.9016918E-1,-4.769798E-1,-9.135494E-1,6.902078E-1,-8.697503E-3,-9.337004E-2,1.5961903E0,9.096293E-1,-2.3127811E-2,1.8795439E0,3.26087E0,1.5201573E-1,8.623382E-1,-3.218923E-1,1.4368558E-1,1.383878E-1,1.0515561E0,-1.8337403E-1,-1.0196238E0,-4.586527E-1,4.989409E-1],"categories":[],"categories_nodes":[],"categories_segments":[],"categories_sizes":[],"default_left":[0,0,0,0,0,0,0,0,0,0,0,0,0,0,0,0,0,0,0,0,0,0,0,0,0,0,0,0,0,0,0,0,0,0,0,0,0,0,0,0,0,0,0,0,0,0,0,0,0,0,0,0,0,0,0,0,0,0,0,0,0,0,0],"id":12,"left_children":[1,3,5,7,9,11,13,15,17,19,21,23,25,27,29,31,33,35,37,39,41,43,45,47,49,51,53,55,57,59,61,-1,-1,-1,-1,-1,-1,-1,-1,-1,-1,-1,-1,-1,-1,-1,-1,-1,-1,-1,-1,-1,-1,-1,-1,-1,-1,-1,-1,-1,-1,-1,-1],"loss_changes":[8.723007E4,1.6774676E4,1.3371492E4,2.771004E3,3.5726152E3,2.6172258E4,1.9093263E3,4.973789E2,1.168748E3,9.342278E3,9.9975195E2,1.7240938E4,1.7961781E4,1.5319342E3,3.6572778E2,2.733828E2,6.6105225E1,4.7226807E2,8.7238574E2,5.89904E3,6.9564424E3,4.058994E2,1.6949005E2,3.3810734E4,4.992165E3,4.6169453E3,1.1833146E3,1.085747E3,8.096736E2,3.3392212E1,2.374079E2,0E0,0E0,0E0,0E0,0E0,0E0,0E0,0E0,0E0,0E0,0E0,0E0,0E0,0E0,0E0,0E0,0E0,0E0,0E0,0E0,0E0,0E0,0E0,0E0,0E0,0E0,0E0,0E0,0E0,0E0,0E0,0E0],"parents":[2147483647,0,0,1,1,2,2,3,3,4,4,5,5,6,6,7,7,8,8,9,9,10,10,11,11,12,12,13,13,14,14,15,15,16,16,17,17,18,18,19,19,20,20,21,21,22,22,23,23,24,24,25,25,26,26,27,27,28,28,29,29,30,30],"right_children":[2,4,6,8,10,12,14,16,18,20,22,24,26,28,30,32,34,36,38,40,42,44,46,48,50,52,54,56,58,60,62,-1,-1,-1,-1,-1,-1,-1,-1,-1,-1,-1,-1,-1,-1,-1,-1,-1,-1,-1,-1,-1,-1,-1,-1,-1,-1,-1,-1,-1,-1,-1,-1],"split_conditions":[1.835E1,1.069E1,2E1,5.2E0,2E1,1.7E1,1E0,4E0,2E0,1.7E1,1E0,1.1E1,5E0,1E0,3E0,1E0,2.14E0,1.1E1,2E1,1.1E1,5E0,1E0,1E0,8E0,1E0,2.814E1,3E0,3E0,2.431E1,1E0,1E0,-8.5639346E-1,-6.27348E-1,-7.401982E-1,-5.2464074E-1,-4.1892752E-1,-8.465956E-1,-3.663995E-1,-6.950484E-1,1.653793E-1,-4.3852398E-1,1.0651606E0,-2.9016918E-1,-4.769798E-1,-9.135494E-1,6.902078E-1,-8.697503E-3,-9.337004E-2,1.5961903E0,9.096293E-1,-2.3127811E-2,1.8795439E0,3.26087E0,1.5201573E-1,8.623382E-1,-3.218923E-1,1.4368558E-1,1.383878E-1,1.0515561E0,-1.8337403E-1,-1.0196238E0,-4.586527E-1,4.989409E-1],"split_indices":[0,0,1,0,1,1,6,7,5,1,3,1,2,3,5,3,0,1,1,1,2,6,4,1,4,0,7,5,0,4,3,0,0,0,0,0,0,0,0,0,0,0,0,0,0,0,0,0,0,0,0,0,0,0,0,0,0,0,0,0,0,0,0],"split_type":[0,0,0,0,0,0,0,0,0,0,0,0,0,0,0,0,0,0,0,0,0,0,0,0,0,0,0,0,0,0,0,0,0,0,0,0,0,0,0,0,0,0,0,0,0,0,0,0,0,0,0,0,0,0,0,0,0,0,0,0,0,0,0],"sum_hessian":[4E3,2.375E3,1.625E3,1.344E3,1.031E3,1.324E3,3.01E2,6.08E2,7.36E2,8.28E2,2.03E2,1.041E3,2.83E2,2.51E2,5E1,4.91E2,1.17E2,1.47E2,5.89E2,6.51E2,1.77E2,1.74E2,2.9E1,4.88E2,5.53E2,1.86E2,9.7E1,2.12E2,3.9E1,1.6E1,3.4E1,4.15E2,7.6E1,2.7E1,9E1,3.8E1,1.09E2,4.91E2,9.8E1,2.95E2,3.56E2,1.23E2,5.4E1,1.48E2,2.6E1,3E0,2.6E1,2.01E2,2.87E2,6.4E1,4.89E2,1.55E2,3.1E1,5.8E1,3.9E1,7.9E1,1.33E2,1.8E1,2.1E1,1E0,1.5E1,3.2E1,2E0],"tree_param":{"num_deleted":"0","num_feature":"8","num_nodes":"63","size_leaf_vector":"1"}},{"base_weights":[6.0316445E-3,-4.7044954E0,3.7871819E0,-6.59393E0,-3.0614002E0,9.851693E-1,6.42178E0,-8.513134E0,-6.194391E0,-2.1463778E0,-5.351157E0,-1.8828179E0,2.532475E0,7.7636E0,3.1043398E-1,-9.5271903E-1,-7.7236784E-1,-6.8944583E0,-5.102367E0,-1.3940425E0,-5.7803955E0,-6.94803E0,-4.240684E0,-9.311511E-1,-6.131135E0,-1.7445898E-1,4.1226573E0,5.6214514E0,1.5590177E1,-8.781885E-1,6.1767554E0,-7.258959E-1,-4.8459926E-1,-5.432421E-1,-3.0439928E-1,-3.0839095E-1,4.4389683E-1,-6.4906156E-1,-2.0112978E-1,-7.3668116E-1,-3.2566E-1,-3.64578E-1,-7.5342613E-1,-3.2819447E-1,9.7403176E-2,-4.300843E-1,-9.383731E-1,9.69766E-2,-6.136621E-1,5.1725125E-1,-2.9251142E-3,9.838338E-1,1.7922027E-1,2.1586437E0,4.547064E-1,-4.284236E-1,9.221715E-2,1.9370364E-1,8.9109945E-1],"categories":[],"categories_nodes":[],"categories_segments":[],"categories_sizes":[],"default_left":[0,0,0,0,0,0,0,0,0,0,0,0,0,0,0,0,0,0,0,0,0,0,0,0,0,0,0,0,0,0,0,0,0,0,0,0,0,0,0,0,0,0,0,0,0,0,0,0,0,0,0,0,0,0,0,0,0,0,0],"id":13,"left_children":[1,3,5,7,9,11,13,15,17,19,21,23,25,27,29,-1,-1,31,33,35,37,39,41,43,45,47,49,51,53,55,57,-1,-1,-1,-1,-1,-1,-1,-1,-1,-1,-1,-1,-1,-1,-1,-1,-1,-1,-1,-1,-1,-1,-1,-1,-1,-1,-1,-1],"loss_changes":[7.128047E4,5.5120664E3,1.6382111E4,5.821758E2,1.9894111E3,4.7841206E3,9.378758E3,3.849121E1,4.915547E2,1.861998E3,4.5286914E2,1.5225383E3,3.0138823E3,1.5638586E4,1.4488025E3,0E0,0E0,2.761836E2,1.689331E2,5.6124727E3,3.0014136E2,1.460581E2,2.9190796E2,1.3915911E3,3.704131E2,1.7796853E3,1.9224272E3,1.189923E4,1.3211535E4,1.0648062E3,3.8847327E2,0E0,0E0,0E0,0E0,0E0,0E0,0E0,0E0,0E0,0E0,0E0,0E0,0E0,0E0,0E0,0E0,0E0,0E0,0E0,0E0,0E0,0E0,0E0,0E0,0E0,0E0,0E0,0E0],"parents":[2147483647,0,0,1,1,2,2,3,3,4,4,5,5,6,6,7,7,8,8,9,9,10,10,11,11,12,12,13,13,14,14,17,17,18,18,19,19,20,20,21,21,22,22,23,23,24,24,25,25,26,26,27,27,28,28,29,29,30,30],"right_children":[2,4,6,8,10,12,14,16,18,20,22,24,26,28,30,-1,-1,32,34,36,38,40,42,44,46,48,50,52,54,56,58,-1,-1,-1,-1,-1,-1,-1,-1,-1,-1,-1,-1,-1,-1,-1,-1,-1,-1,-1,-1,-1,-1,-1,-1,-1,-1,-1,-1],"split_conditions":[1.382E1,6.78E0,2.164E1,2.03E0,5E0,3E0,2E1,2E0,3E0,2E1,3E0,1E0,2E0,1.7E1,1E0,-9.5271903E-1,-7.7236784E-1,1E0,1E0,1.7E1,1E0,1E0,1E0,2E0,2E0,1E0,2E1,1.1E1,5E0,2E0,3E0,-7.258959E-1,-4.8459926E-1,-5.432421E-1,-3.0439928E-1,-3.0839095E-1,4.4389683E-1,-6.4906156E-1,-2.0112978E-1,-7.3668116E-1,-3.2566E-1,-3.64578E-1,-7.5342613E-1,-3.2819447E-1,9.7403176E-2,-4.300843E-1,-9.383731E-1,9.69766E-2,-6.136621E-1,5.1725125E-1,-2.9251142E-3,9.838338E-1,1.7922027E-1,2.1586437E0,4.547064E-1,-4.284236E-1,9.221715E-2,1.9370364E-1,8.9109945E-1],"split_indices":[0,0,0,0,2,5,1,7,7,1,5,6,7,1,3,0,0,3,3,1,3,3,6,7,4,6,1,1,2,7,5,0,0,0,0,0,0,0,0,0,0,0,0,0,0,0,0,0,0,0,0,0,0,0,0,0,0,0,0],"split_type":[0,0,0,0,0,0,0,0,0,0,0,0,0,0,0,0,0,0,0,0,0,0,0,0,0,0,0,0,0,0,0,0,0,0,0,0,0,0,0,0,0,0,0,0,0,0,0,0,0,0,0,0,0,0,0,0,0,0,0],"sum_hessian":[4E3,1.781E3,2.219E3,8.27E2,9.54E2,1.076E3,1.143E3,1.39E2,6.88E2,6.83E2,2.71E2,3.77E2,6.99E2,9.37E2,2.06E2,5.6E1,8.3E1,4.16E2,2.72E2,5.67E2,1.16E2,1.09E2,1.62E2,3.09E2,6.8E1,2.59E2,4.4E2,7.37E2,2E2,1.72E2,3.4E1,3.51E2,6.5E1,2.33E2,3.9E1,4.4E2,1.27E2,9.7E1,1.9E1,9.7E1,1.2E1,1.39E2,2.3E1,1.38E2,1.71E2,4.5E1,2.3E1,2.18E2,4.1E1,3.51E2,8.9E1,3.5E2,3.87E2,1.29E2,7.1E1,5.9E1,1.13E2,1.4E1,2E1],"tree_param":{"num_deleted":"0","num_feature":"8","num_nodes":"59","size_leaf_vector":"1"}},{"base_weights":[4.4899103E-3,-2.9770842E0,4.8782516E0,-5.0226026E0,-4.9136865E-1,5.959124E0,-1.6695988E0,-6.464791E0,-4.0526423E0,-2.0450516E0,1.5833834E0,2.5961766E0,8.020294E0,1.0348389E0,-6.76774E0,-8.1264764E-1,-6.0693827E0,-5.4747953E0,-3.194768E0,-1.2574084E0,-6.061308E0,-3.2290263E0,2.2379503E0,1.3501824E0,8.29298E0,6.4476786E0,1.3393974E1,3.392806E0,-5.507829E0,-9.15588E0,-1.9148653E0,-7.5715876E-1,-5.645511E-1,-3.2087106E-1,-6.303838E-1,-4.2522284E-1,-1.7719012E-1,-1.6294844E-2,-3.7966308E-1,-4.216419E-1,-9.3379575E-1,-4.253629E-1,1.5355162E-1,9.745927E-1,6.227042E-2,2.8985882E-1,-1.9952314E-1,5.8712107E-1,1.5855321E0,5.361746E-1,1.1734557E0,1.5323843E0,5.1416224E-1,4.0879257E-2,1.1198883E0,-8.1924105E-1,-3.7841508E-1,-1.0738525E0,-2.5684524E-1,-6.706075E-1,-4.5476403E-2],"categories":[],"categories_nodes":[],"categories_segments":[],"categories_sizes":[],"default_left":[0,0,0,0,0,0,0,0,0,0,0,0,0,0,0,0,0,0,0,0,0,0,0,0,0,0,0,0,0,0,0,0,0,0,0,0,0,0,0,0,0,0,0,0,0,0,0,0,0,0,0,0,0,0,0,0,0,0,0,0,0],"id":14,"left_children":[1,3,5,7,9,11,13,15,17,19,21,23,25,27,29,-1,31,33,35,37,39,41,43,45,47,49,51,53,55,57,59,-1,-1,-1,-1,-1,-1,-1,-1,-1,-1,-1,-1,-1,-1,-1,-1,-1,-1,-1,-1,-1,-1,-1,-1,-1,-1,-1,-1,-1,-1],"loss_changes":[5.815498E4,1.2622533E4,1.0760508E4,1.8790547E3,3.6200125E3,9.017996E3,2.9851262E3,3.0942383E2,9.7927246E2,2.0232661E3,1.5223976E3,3.5166008E3,6.741832E3,2.2093772E3,8.516682E2,0E0,2.4060547E2,5.5464844E2,7.628335E2,1.4945249E3,5.953579E2,2.896739E2,5.1358765E3,2.1244268E3,1.5368774E3,3.5368105E3,2.8197383E3,2.4412332E3,1.4483813E2,4.9369727E2,1.7883723E2,0E0,0E0,0E0,0E0,0E0,0E0,0E0,0E0,0E0,0E0,0E0,0E0,0E0,0E0,0E0,0E0,0E0,0E0,0E0,0E0,0E0,0E0,0E0,0E0,0E0,0E0,0E0,0E0,0E0,0E0],"parents":[2147483647,0,0,1,1,2,2,3,3,4,4,5,5,6,6,7,7,8,8,9,9,10,10,11,11,12,12,13,13,14,14,16,16,17,17,18,18,19,19,20,20,21,21,22,22,23,23,24,24,25,25,26,26,27,27,28,28,29,29,30,30],"right_children":[2,4,6,8,10,12,14,16,18,20,22,24,26,28,30,-1,32,34,36,38,40,42,44,46,48,50,52,54,56,58,60,-1,-1,-1,-1,-1,-1,-1,-1,-1,-1,-1,-1,-1,-1,-1,-1,-1,-1,-1,-1,-1,-1,-1,-1,-1,-1,-1,-1,-1,-1],"split_conditions":[1.909E1,1.08E1,1E0,4.8E0,4E0,3E0,2E0,1E0,3E0,1E0,8E0,1E0,2.729E1,2E1,1.7E1,-8.1264764E-1,1.76E0,1.1E1,3E0,5E0,2E0,1E0,1.1E1,5E0,2.754E1,1E0,2E1,1.7E1,3E0,1E0,3E0,-7.5715876E-1,-5.645511E-1,-3.2087106E-1,-6.303838E-1,-4.2522284E-1,-1.7719012E-1,-1.6294844E-2,-3.7966308E-1,-4.216419E-1,-9.3379575E-1,-4.253629E-1,1.5355162E-1,9.745927E-1,6.227042E-2,2.8985882E-1,-1.9952314E-1,5.8712107E-1,1.5855321E0,5.361746E-1,1.1734557E0,1.5323843E0,5.1416224E-1,4.0879257E-2,1.1198883E0,-8.1924105E-1,-3.7841508E-1,-1.0738525E0,-2.5684524E-1,-6.706075E-1,-4.5476403E-2],"split_indices":[0,0,6,0,5,5,4,7,5,6,1,3,0,1,1,0,0,1,7,2,4,3,1,2,0,3,1,1,5,3,5,0,0,0,0,0,0,0,0,0,0,0,0,0,0,0,0,0,0,0,0,0,0,0,0,0,0,0,0,0,0],"split_type":[0,0,0,0,0,0,0,0,0,0,0,0,0,0,0,0,0,0,0,0,0,0,0,0,0,0,0,0,0,0,0,0,0,0,0,0,0,0,0,0,0,0,0,0,0,0,0,0,0,0,0,0,0,0,0,0,0,0,0,0,0],"sum_hessian":[4E3,2.482E3,1.518E3,1.361E3,1.121E3,1.303E3,2.15E2,5.45E2,8.16E2,6.41E2,4.8E2,4.96E2,8.07E2,1.41E2,7.4E1,1.01E2,4.44E2,3.05E2,5.11E2,5.37E2,1.04E2,5.7E1,4.23E2,4.08E2,8.8E1,6.26E2,1.81E2,1.04E2,3.7E1,4.9E1,2.5E1,9.4E1,3.5E2,8.3E1,2.22E2,2.92E2,2.19E2,3.76E2,1.61E2,6.8E1,3.6E1,4.7E1,1E1,7.4E1,3.49E2,2.79E2,1.29E2,6.8E1,2E1,5.21E2,1.05E2,1.46E2,3.5E1,7.6E1,2.8E1,1.3E1,2.4E1,3.9E1,1E1,5E0,2E1],"tree_param":{"num_deleted":"0","num_feature":"8","num_nodes":"61","size_leaf_vector":"1"}},{"base_weights":[3.8561793E-3,-3.843739E0,3.0923295E0,-5.058562E0,-2.1183548E0,1.4958993E0,6.4995427E0,-5.453604E0,-3.2636957E0,-3.7830095E0,-9.105195E-1,-3.8853436E0,2.230051E0,8.690527E0,2.2974634E0,-6.233164E0,-4.6971893E0,-3.7919226E0,-5.3235464E-2,-6.304194E0,-3.1652641E0,-2.4740255E-1,-5.2338896E0,-4.926537E0,1.3451973E0,8.69916E0,6.3035536E-1,1.3327237E1,6.71322E0,4.19466E0,-6.927023E0,-7.458675E-1,-5.854594E-1,-5.470571E-1,-3.5258728E-1,-4.1057044E-1,-1.7904587E-1,2.572581E-1,-1.432442E-1,-2.865816E-1,-7.596906E-1,-4.0864235E-1,-1.3504073E-1,2.1314816E-1,-1.2633859E-1,1.0427904E-1,-5.601905E-1,-6.8384326E-1,-2.6490447E-1,2.5332186E-1,-5.3391564E-1,1.2119783E0,-4.167161E-2,-1.6891627E-1,2.8887966E-1,2.299677E-1,2.0176191E0,3.264515E-1,9.899284E-1,6.346466E-1,-6.878671E-2,-1.1258506E0,-3.8284758E-1],"categories":[],"categories_nodes":[],"categories_segments":[],"categories_sizes":[],"default_left":[0,0,0,0,0,0,0,0,0,0,0,0,0,0,0,0,0,0,0,0,0,0,0,0,0,0,0,0,0,0,0,0,0,0,0,0,0,0,0,0,0,0,0,0,0,0,0,0,0,0,0,0,0,0,0,0,0,0,0,0,0,0,0],"id":15,"left_children":[1,3,5,7,9,11,13,15,17,19,21,23,25,27,29,31,33,35,37,39,41,43,45,47,49,51,53,55,57,59,61,-1,-1,-1,-1,-1,-1,-1,-1,-1,-1,-1,-1,-1,-1,-1,-1,-1,-1,-1,-1,-1,-1,-1,-1,-1,-1,-1,-1,-1,-1,-1,-1],"loss_changes":[4.755655E4,3.7244219E3,1.2065697E4,7.231582E2,1.4803992E3,5.985997E3,6.498371E3,4.7488867E2,3.2370557E2,4.6285498E2,1.2286052E3,9.978003E2,1.3778859E4,4.173746E3,4.299219E3,1.5025977E2,3.7748438E2,9.5644775E1,1.0508828E2,2.449187E2,4.1409668E2,9.0419904E2,1.3750671E2,6.437422E2,2.5970102E2,8.237094E3,5.604831E3,1.0376359E4,3.5716816E3,2.137134E3,5.205918E2,0E0,0E0,0E0,0E0,0E0,0E0,0E0,0E0,0E0,0E0,0E0,0E0,0E0,0E0,0E0,0E0,0E0,0E0,0E0,0E0,0E0,0E0,0E0,0E0,0E0,0E0,0E0,0E0,0E0,0E0,0E0,0E0],"parents":[2147483647,0,0,1,1,2,2,3,3,4,4,5,5,6,6,7,7,8,8,9,9,10,10,11,11,12,12,13,13,14,14,15,15,16,16,17,17,18,18,19,19,20,20,21,21,22,22,23,23,24,24,25,25,26,26,27,27,28,28,29,29,30,30],"right_children":[2,4,6,8,10,12,14,16,18,20,22,24,26,28,30,32,34,36,38,40,42,44,46,48,50,52,54,56,58,60,62,-1,-1,-1,-1,-1,-1,-1,-1,-1,-1,-1,-1,-1,-1,-1,-1,-1,-1,-1,-1,-1,-1,-1,-1,-1,-1,-1,-1,-1,-1,-1,-1],"split_conditions":[1.382E1,8.38E0,2.482E1,4E0,2E0,8E0,2E0,4.52E0,7.13E0,2E0,1E0,1E0,1.1E1,1.1E1,1E0,1E0,1.7E1,1E0,3E0,1.1E1,1.7E1,1.1E1,1E0,3E0,2E0,5E0,1.7E1,8E0,1.7E1,5E0,3E0,-7.458675E-1,-5.854594E-1,-5.470571E-1,-3.5258728E-1,-4.1057044E-1,-1.7904587E-1,2.572581E-1,-1.432442E-1,-2.865816E-1,-7.596906E-1,-4.0864235E-1,-1.3504073E-1,2.1314816E-1,-1.2633859E-1,1.0427904E-1,-5.601905E-1,-6.8384326E-1,-2.6490447E-1,2.5332186E-1,-5.3391564E-1,1.2119783E0,-4.167161E-2,-1.6891627E-1,2.8887966E-1,2.299677E-1,2.0176191E0,3.264515E-1,9.899284E-1,6.346466E-1,-6.878671E-2,-1.1258506E0,-3.8284758E-1],"split_indices":[0,0,0,7,7,1,4,0,0,5,6,3,1,1,6,7,1,3,2,1,1,1,4,7,4,2,1,1,1,2,5,0,0,0,0,0,0,0,0,0,0,0,0,0,0,0,0,0,0,0,0,0,0,0,0,0,0,0,0,0,0,0,0],"split_type":[0,0,0,0,0,0,0,0,0,0,0,0,0,0,0,0,0,0,0,0,0,0,0,0,0,0,0,0,0,0,0,0,0,0,0,0,0,0,0,0,0,0,0,0,0,0,0,0,0,0,0,0,0,0,0,0,0,0,0,0,0,0,0],"sum_hessian":[4E3,1.781E3,2.219E3,1.044E3,7.37E2,1.512E3,7.07E2,8.54E2,1.9E2,3.09E2,4.28E2,1.81E2,1.331E3,4.64E2,2.43E2,4.17E2,4.37E2,1.63E2,2.7E1,5.9E1,2.5E2,3.72E2,5.6E1,1.51E2,3E1,2.63E2,1.068E3,1.37E2,3.27E2,2.02E2,4.1E1,9.4E1,3.23E2,2.61E2,1.76E2,1.4E2,2.3E1,9E0,1.8E1,1.7E1,4.2E1,1.65E2,8.5E1,1.11E2,2.61E2,3E0,5.3E1,8.1E1,7E1,2.6E1,4E0,1.91E2,7.2E1,5.27E2,5.41E2,5.3E1,8.4E1,1.58E2,1.69E2,1.4E2,6.2E1,1.6E1,2.5E1],"tree_param":{"num_deleted":"0","num_feature":"8","num_nodes":"63","size_leaf_vector":"1"}},{"base_weights":[2.9745328E-3,-2.190914E0,4.4960155E0,-3.976922E0,-9.4407484E-2,5.6320815E0,-7.123535E-1,-4.938139E0,-2.8964114E0,-8.626851E-1,3.9697533E0,3.8197207E0,1.2409612E1,-5.534216E0,2.9993576E-1,-5.488761E0,-4.0814724E0,-1.1637503E0,-3.602029E0,-2.260502E0,1.0324683E0,4.760236E0,-1.0295562E-1,7.176681E0,7.4774206E-1,1.7475061E1,2.8834097E0,3.0693786E0,-6.5472903E0,-6.6532826E-1,5.2677054E0,-5.775576E-1,-3.8469946E-1,-5.5028963E-1,-3.7093887E-1,-5.367205E-1,1.2946704E-1,-5.3490216E-1,-2.0561974E-1,-1.5122688E-1,-5.942247E-1,1.8708329E-1,-2.2765708E-1,3.3712563E-1,7.3328424E-1,-4.83843E-1,1.1285732E-1,-1.5992735E-1,1.2867985E0,8.215454E-1,-3.2371476E-2,1.5184015E0,2.53056E0,4.2823696E-1,-6.28119E-1,-1.5809135E-1,6.696545E-1,-8.073864E-1,-3.770058E-1,-2.519279E-1,1.7056684E-1,-2.4045212E-2,8.1643814E-1],"categories":[],"categories_nodes":[],"categories_segments":[],"categories_sizes":[],"default_left":[0,0,0,0,0,0,0,0,0,0,0,0,0,0,0,0,0,0,0,0,0,0,0,0,0,0,0,0,0,0,0,0,0,0,0,0,0,0,0,0,0,0,0,0,0,0,0,0,0,0,0,0,0,0,0,0,0,0,0,0,0,0,0],"id":16,"left_children":[1,3,5,7,9,11,13,15,17,19,21,23,25,27,29,31,33,35,37,39,41,43,45,47,49,51,53,55,57,59,61,-1,-1,-1,-1,-1,-1,-1,-1,-1,-1,-1,-1,-1,-1,-1,-1,-1,-1,-1,-1,-1,-1,-1,-1,-1,-1,-1,-1,-1,-1,-1,-1],"loss_changes":[3.944863E4,1.0068255E4,7.7730996E3,1.493752E3,3.8689607E3,1.3194027E4,1.1536042E3,3.3939062E2,8.345093E2,2.7626729E3,6.347129E2,8.780892E3,1.0903383E4,3.7745544E2,9.433658E2,1.9627148E2,1.4036963E2,2.073721E3,1.3041724E3,1.6438962E3,1.2332214E3,5.6487305E2,1.9791232E2,2.0348857E4,3.5712532E3,2.2708984E3,1.0525709E3,9.492357E1,1.2642822E2,7.2958936E2,5.1253424E2,0E0,0E0,0E0,0E0,0E0,0E0,0E0,0E0,0E0,0E0,0E0,0E0,0E0,0E0,0E0,0E0,0E0,0E0,0E0,0E0,0E0,0E0,0E0,0E0,0E0,0E0,0E0,0E0,0E0,0E0,0E0,0E0],"parents":[2147483647,0,0,1,1,2,2,3,3,4,4,5,5,6,6,7,7,8,8,9,9,10,10,11,11,12,12,13,13,14,14,15,15,16,16,17,17,18,18,19,19,20,20,21,21,22,22,23,23,24,24,25,25,26,26,27,27,28,28,29,29,30,30],"right_children":[2,4,6,8,10,12,14,16,18,20,22,24,26,28,30,32,34,36,38,40,42,44,46,48,50,52,54,56,58,60,62,-1,-1,-1,-1,-1,-1,-1,-1,-1,-1,-1,-1,-1,-1,-1,-1,-1,-1,-1,-1,-1,-1,-1,-1,-1,-1,-1,-1,-1,-1,-1,-1],"split_conditions":[2.044E1,1.138E1,2E1,6.35E0,1E0,1.7E1,2E0,3E0,1.1E1,4E0,1E0,1.1E1,5E0,1E0,1E0,1E0,2.14E0,8E0,1.7E1,1E0,2E1,1.7E1,1E0,8E0,1E0,2.814E1,1E0,2.368E1,4E0,3E0,2.431E1,-5.775576E-1,-3.8469946E-1,-5.5028963E-1,-3.7093887E-1,-5.367205E-1,1.2946704E-1,-5.3490216E-1,-2.0561974E-1,-1.5122688E-1,-5.942247E-1,1.8708329E-1,-2.2765708E-1,3.3712563E-1,7.3328424E-1,-4.83843E-1,1.1285732E-1,-1.5992735E-1,1.2867985E0,8.215454E-1,-3.2371476E-2,1.5184015E0,2.53056E0,4.2823696E-1,-6.28119E-1,-1.5809135E-1,6.696545E-1,-8.073864E-1,-3.770058E-1,-2.519279E-1,1.7056684E-1,-2.4045212E-2,8.1643814E-1],"split_indices":[0,0,1,0,3,1,5,7,1,5,6,1,2,4,3,3,0,1,1,6,1,1,7,1,4,0,6,0,2,7,0,0,0,0,0,0,0,0,0,0,0,0,0,0,0,0,0,0,0,0,0,0,0,0,0,0,0,0,0,0,0,0,0],"split_type":[0,0,0,0,0,0,0,0,0,0,0,0,0,0,0,0,0,0,0,0,0,0,0,0,0,0,0,0,0,0,0,0,0,0,0,0,0,0,0,0,0,0,0,0,0,0,0,0,0,0,0,0,0,0,0,0,0,0,0,0,0,0,0],"sum_hessian":[4E3,2.688E3,1.312E3,1.451E3,1.237E3,1.077E3,2.35E2,7.66E2,6.85E2,1.041E3,1.96E2,8.51E2,2.26E2,4E1,1.95E2,4.63E2,3.03E2,1.99E2,4.86E2,5.99E2,4.42E2,1.64E2,3.2E1,4.06E2,4.45E2,1.47E2,7.9E1,4E0,3.6E1,1.64E2,3.1E1,3.92E2,7.1E1,6E1,2.43E2,7.3E1,1.26E2,2.27E2,2.59E2,4.99E2,1E2,3.53E2,8.9E1,1.08E2,5.6E1,6E0,2.6E1,1.6E2,2.46E2,5.5E1,3.9E2,1.16E2,3.1E1,6.9E1,1E1,2E0,2E0,2.2E1,1.4E1,9.2E1,7.2E1,1.1E1,2E1],"tree_param":{"num_deleted":"0","num_feature":"8","num_nodes":"63","size_leaf_vector":"1"}},{"base_weights":[3.348167E-3,-2.620863E0,3.0744133E0,-4.0790043E0,-1.1589414E0,3.9859455E0,-2.3243585E0,-5.1627097E0,-3.5741086E0,-2.637456E-1,-3.4091933E0,2.9304957E0,8.417523E0,-2.9394478E-1,-6.120036E0,-6.534303E-1,-4.8465896E0,-3.1710315E0,-5.4237494E0,-5.0414386E0,3.8113928E-1,-5.0822206E0,-2.1011767E0,2.365532E-1,4.464393E0,1.0967942E1,5.03048E0,1.4196134E0,-5.5871844E0,-8.43954E0,-1.8467919E0,-5.738821E-1,-4.3673992E-1,-4.0963817E-1,-4.7498018E-2,-6.2989557E-1,-3.972976E-1,-6.246503E-1,-3.4581122E-1,6.8283695E-1,-1.3118143E-1,-4.5301005E-1,-7.8374344E-1,-2.906791E-1,2.027128E-1,-5.8594313E-2,4.378008E-1,5.375691E-1,2.6431615E-2,1.2749851E0,1.3484924E-1,3.4917083E-1,1.1809465E0,-1.18811466E-1,7.735371E-1,-8.163113E-1,-3.9156827E-1,-9.726516E-1,-2.4810961E-1,-3.2834014E-1,1.9294117E-1],"categories":[],"categories_nodes":[],"categories_segments":[],"categories_sizes":[],"default_left":[0,0,0,0,0,0,0,0,0,0,0,0,0,0,0,0,0,0,0,0,0,0,0,0,0,0,0,0,0,0,0,0,0,0,0,0,0,0,0,0,0,0,0,0,0,0,0,0,0,0,0,0,0,0,0,0,0,0,0,0,0],"id":17,"left_children":[1,3,5,7,9,11,13,15,17,19,21,23,25,27,29,-1,31,33,35,37,39,41,43,45,47,49,51,53,55,57,59,-1,-1,-1,-1,-1,-1,-1,-1,-1,-1,-1,-1,-1,-1,-1,-1,-1,-1,-1,-1,-1,-1,-1,-1,-1,-1,-1,-1,-1,-1],"loss_changes":[3.2252611E4,4.595457E3,9.083871E3,5.724785E2,2.1726558E3,7.356125E3,2.0559153E3,1.1618457E2,5.3450586E2,2.3835825E3,6.611438E2,5.271673E3,2.5622559E3,1.5952295E3,9.0621216E2,0E0,9.507764E1,1.5198774E3,1.4130835E2,1.5393579E2,7.452893E3,1.6833765E2,5.8458527E2,1.583103E3,3.1103525E3,2.9310527E3,1.3356978E3,2.199671E3,1.5317969E2,4.359702E2,1.9078268E2,0E0,0E0,0E0,0E0,0E0,0E0,0E0,0E0,0E0,0E0,0E0,0E0,0E0,0E0,0E0,0E0,0E0,0E0,0E0,0E0,0E0,0E0,0E0,0E0,0E0,0E0,0E0,0E0,0E0,0E0],"parents":[2147483647,0,0,1,1,2,2,3,3,4,4,5,5,6,6,7,7,8,8,9,9,10,10,11,11,12,12,13,13,14,14,16,16,17,17,18,18,19,19,20,20,21,21,22,22,23,23,24,24,25,25,26,26,27,27,28,28,29,29,30,30],"right_children":[2,4,6,8,10,12,14,16,18,20,22,24,26,28,30,-1,32,34,36,38,40,42,44,46,48,50,52,54,56,58,60,-1,-1,-1,-1,-1,-1,-1,-1,-1,-1,-1,-1,-1,-1,-1,-1,-1,-1,-1,-1,-1,-1,-1,-1,-1,-1,-1,-1,-1,-1],"split_conditions":[1.685E1,8.7E0,1E0,3.34E0,5E0,2.729E1,2E0,1E0,2E1,8E0,2E0,3E0,4E0,2E1,1.7E1,-6.534303E-1,1.76E0,1.7E1,4E0,4E0,1.1E1,1E0,1E0,1E0,2E1,2E1,1E0,1.7E1,2E0,1E0,1E0,-5.738821E-1,-4.3673992E-1,-4.0963817E-1,-4.7498018E-2,-6.2989557E-1,-3.972976E-1,-6.246503E-1,-3.4581122E-1,6.8283695E-1,-1.3118143E-1,-4.5301005E-1,-7.8374344E-1,-2.906791E-1,2.027128E-1,-5.8594313E-2,4.378008E-1,5.375691E-1,2.6431615E-2,1.2749851E0,1.3484924E-1,3.4917083E-1,1.1809465E0,-1.18811466E-1,7.735371E-1,-8.163113E-1,-3.9156827E-1,-9.726516E-1,-2.4810961E-1,-3.2834014E-1,1.9294117E-1],"split_indices":[0,0,6,0,2,0,4,7,1,1,7,5,2,1,1,0,0,1,5,5,1,6,3,3,1,1,3,1,7,3,3,0,0,0,0,0,0,0,0,0,0,0,0,0,0,0,0,0,0,0,0,0,0,0,0,0,0,0,0,0,0],"split_type":[0,0,0,0,0,0,0,0,0,0,0,0,0,0,0,0,0,0,0,0,0,0,0,0,0,0,0,0,0,0,0,0,0,0,0,0,0,0,0,0,0,0,0,0,0,0,0,0,0,0,0,0,0,0,0,0,0,0,0,0,0],"sum_hessian":[4E3,2.157E3,1.843E3,1.079E3,1.078E3,1.577E3,2.66E2,3.4E2,7.39E2,7.72E2,3.06E2,1.275E3,3.02E2,1.74E2,9.2E1,6E1,2.8E2,6.09E2,1.3E2,9.1E1,6.81E2,1.33E2,1.73E2,4.63E2,8.12E2,1.71E2,1.31E2,1.32E2,4.2E1,5.9E1,3.3E1,9.4E1,1.86E2,4.53E2,1.56E2,7.9E1,5.1E1,5E1,4.1E1,1.41E2,5.4E2,1.13E2,2E1,1.45E2,2.8E1,3.87E2,7.6E1,6.67E2,1.45E2,1.44E2,2.7E1,1.08E2,2.3E1,9.4E1,3.8E1,1.5E1,2.7E1,4.8E1,1.1E1,2.4E1,9E0],"tree_param":{"num_deleted":"0","num_feature":"8","num_nodes":"61","size_leaf_vector":"1"}},{"base_weights":[2.2835706E-3,-1.8079323E0,3.7095706E0,-3.1802132E0,8.7545824E-4,1.8230889E0,6.3562894E0,-4.00954E0,-2.3112087E0,-1.9476594E0,1.372277E0,7.8166336E-1,6.614022E0,8.230132E0,2.3028438E0,-5.326522E0,-3.6880286E0,-1.7855908E0,-4.6885705E0,-1.1974288E0,-5.0986595E0,-1.22319184E-1,3.1768293E0,-4.9523177E0,1.5509589E0,4.657605E0,1.1588433E1,9.652626E0,1.5892988E0,2.6071388E-2,5.851547E0,-6.3732964E-1,-4.5663044E-1,-3.953549E-1,-2.1094957E-1,-2.764512E-1,1.21444166E-1,-5.254254E-1,-1.7054929E-1,-3.1025264E-1,5.4513294E-1,-6.113802E-1,-1.7874153E-1,7.523647E-2,-3.8657215E-1,2.2776167E-1,6.8706024E-1,2.4737664E-1,-5.7531464E-1,7.6155937E-1,-5.78945E-3,1.2718664E-1,6.54221E-1,1.3282155E0,2.1902156E-1,2.3198655E-2,1.1144834E0,-4.7153488E-1,2.1737921E-1,1.1882537E-1,-5.7862884E-1,8.03677E-1,9.171351E-2],"categories":[],"categories_nodes":[],"categories_segments":[],"categories_sizes":[],"default_left":[0,0,0,0,0,0,0,0,0,0,0,0,0,0,0,0,0,0,0,0,0,0,0,0,0,0,0,0,0,0,0,0,0,0,0,0,0,0,0,0,0,0,0,0,0,0,0,0,0,0,0,0,0,0,0,0,0,0,0,0,0,0,0],"id":18,"left_children":[1,3,5,7,9,11,13,15,17,19,21,23,25,27,29,31,33,35,37,39,41,43,45,47,49,51,53,55,57,59,61,-1,-1,-1,-1,-1,-1,-1,-1,-1,-1,-1,-1,-1,-1,-1,-1,-1,-1,-1,-1,-1,-1,-1,-1,-1,-1,-1,-1,-1,-1,-1,-1],"loss_changes":[2.6857375E4,6.674618E3,6.544205E3,1.092666E3,3.105124E3,3.8266885E3,4.128201E3,3.1105078E2,9.2756665E2,1.1286036E3,1.8397952E3,2.7955127E3,1.2793125E3,3.5082207E3,1.4056958E3,9.105957E1,2.561328E2,1.8094865E3,2.1884839E2,4.944194E3,2.9831934E2,1.2274941E3,1.0106907E3,4.6025854E2,5.444907E3,6.297571E2,5.75792E2,4.31308E3,2.571468E2,7.2966284E2,7.258594E2,0E0,0E0,0E0,0E0,0E0,0E0,0E0,0E0,0E0,0E0,0E0,0E0,0E0,0E0,0E0,0E0,0E0,0E0,0E0,0E0,0E0,0E0,0E0,0E0,0E0,0E0,0E0,0E0,0E0,0E0,0E0,0E0],"parents":[2147483647,0,0,1,1,2,2,3,3,4,4,5,5,6,6,7,7,8,8,9,9,10,10,11,11,12,12,13,13,14,14,15,15,16,16,17,17,18,18,19,19,20,20,21,21,22,22,23,23,24,24,25,25,26,26,27,27,28,28,29,29,30,30],"right_children":[2,4,6,8,10,12,14,16,18,20,22,24,26,28,30,32,34,36,38,40,42,44,46,48,50,52,54,56,58,60,62,-1,-1,-1,-1,-1,-1,-1,-1,-1,-1,-1,-1,-1,-1,-1,-1,-1,-1,-1,-1,-1,-1,-1,-1,-1,-1,-1,-1,-1,-1,-1,-1],"split_conditions":[2.044E1,1.201E1,4E0,6.41E0,2E0,1E0,5E0,1E0,2E1,2E1,4E0,8E0,2.754E1,2E1,3E0,3E0,1E0,1.7E1,4E0,1.7E1,5E0,1E0,1E0,1E0,1.1E1,2E0,2.1E1,8E0,1E0,1E0,2E0,-6.3732964E-1,-4.5663044E-1,-3.953549E-1,-2.1094957E-1,-2.764512E-1,1.21444166E-1,-5.254254E-1,-1.7054929E-1,-3.1025264E-1,5.4513294E-1,-6.113802E-1,-1.7874153E-1,7.523647E-2,-3.8657215E-1,2.2776167E-1,6.8706024E-1,2.4737664E-1,-5.7531464E-1,7.6155937E-1,-5.78945E-3,1.2718664E-1,6.54221E-1,1.3282155E0,2.1902156E-1,2.3198655E-2,1.1144834E0,-4.7153488E-1,2.1737921E-1,1.1882537E-1,-5.7862884E-1,8.03677E-1,9.171351E-2],"split_indices":[0,0,5,0,7,3,2,7,1,1,5,1,0,1,7,5,3,1,7,1,5,6,3,4,1,5,1,1,7,6,4,0,0,0,0,0,0,0,0,0,0,0,0,0,0,0,0,0,0,0,0,0,0,0,0,0,0,0,0,0,0,0,0],"split_type":[0,0,0,0,0,0,0,0,0,0,0,0,0,0,0,0,0,0,0,0,0,0,0,0,0,0,0,0,0,0,0,0,0,0,0,0,0,0,0,0,0,0,0,0,0,0,0,0,0,0,0,0,0,0,0,0,0,0,0,0,0,0,0],"sum_hessian":[4E3,2.688E3,1.312E3,1.528E3,1.16E3,7.67E2,5.45E2,7.8E2,7.48E2,4.79E2,6.81E2,6.31E2,1.36E2,3.72E2,1.73E2,1.5E2,6.3E2,6.14E2,1.34E2,3.88E2,9.1E1,3.73E2,3.08E2,7.4E1,5.57E2,9.9E1,3.7E1,3.06E2,6.6E1,1.06E2,6.7E1,6E1,9E1,5.38E2,9.2E1,4.63E2,1.51E2,1.12E2,2.2E1,3.02E2,8.6E1,6.9E1,2.2E1,3.03E2,7E1,2.49E2,5.9E1,7E0,6.7E1,1.16E2,4.41E2,3.6E1,6.3E1,3.1E1,6E0,4.2E1,2.64E2,5E0,6.1E1,8.9E1,1.7E1,4.6E1,2.1E1],"tree_param":{"num_deleted":"0","num_feature":"8","num_nodes":"63","size_leaf_vector":"1"}},{"base_weights":[2.4484398E-3,-1.5895828E0,3.435107E0,-2.8638606E0,2.7299564E-2,1.655776E0,5.9176583E0,-3.2461092E0,-1.1911987E0,-4.271606E0,5.9132904E-1,2.4875948E0,-3.3429098E0,7.6031365E0,2.2506306E0,-1.9232954E0,-3.731499E0,-2.2700493E0,2.569533E-1,-6.1641307E0,-2.4501913E0,5.6281095E0,-5.344023E-1,1.521475E0,7.08479E0,-1.0283395E1,-1.9016553E0,1.2453634E1,5.4084797E0,1.4045238E-1,5.5922904E0,-4.6838585E-1,-2.8653258E-2,-4.9080974E-1,-2.6365626E-1,-2.945216E-1,-1.5589653E-1,-3.312766E-1,9.0045534E-2,3.5193827E-2,-6.6868657E-1,-3.3855984E-1,1.3924228E-1,8.4676373E-1,-1.5712109E-1,-3.0266768E-1,1.8475564E-1,2.699251E-1,-1.3410693E-1,5.031358E-1,1.1932802E0,-1.1456115E0,-6.010895E-2,3.0246542E-3,-5.5171573E-1,4.073333E-2,1.9140366E0,2.5178128E-1,8.5431427E-1,1.1055168E-1,-4.863437E-1,7.581552E-1,1.063288E-1],"categories":[],"categories_nodes":[],"categories_segments":[],"categories_sizes":[],"default_left":[0,0,0,0,0,0,0,0,0,0,0,0,0,0,0,0,0,0,0,0,0,0,0,0,0,0,0,0,0,0,0,0,0,0,0,0,0,0,0,0,0,0,0,0,0,0,0,0,0,0,0,0,0,0,0,0,0,0,0,0,0,0,0],"id":19,"left_children":[1,3,5,7,9,11,13,15,17,19,21,23,25,27,29,31,33,35,37,39,41,43,45,47,49,51,53,55,57,59,61,-1,-1,-1,-1,-1,-1,-1,-1,-1,-1,-1,-1,-1,-1,-1,-1,-1,-1,-1,-1,-1,-1,-1,-1,-1,-1,-1,-1,-1,-1,-1,-1],"loss_changes":[2.1870523E4,5.6330947E3,5.5913135E3,9.737334E2,2.9267256E3,3.0852363E3,3.2524766E3,7.915713E2,4.474124E2,4.6748706E2,6.052963E3,2.8095361E3,1.0407631E3,3.7861992E3,1.1838662E3,1.5168359E3,1.158125E3,7.414496E1,2.8552893E2,2.3397314E2,2.67106E2,3.9996245E3,5.1881514E3,1.7769945E3,1.035019E3,1.974972E2,6.2181354E2,9.013846E3,2.2528677E3,5.076005E2,5.775477E2,0E0,0E0,0E0,0E0,0E0,0E0,0E0,0E0,0E0,0E0,0E0,0E0,0E0,0E0,0E0,0E0,0E0,0E0,0E0,0E0,0E0,0E0,0E0,0E0,0E0,0E0,0E0,0E0,0E0,0E0,0E0,0E0],"parents":[2147483647,0,0,1,1,2,2,3,3,4,4,5,5,6,6,7,7,8,8,9,9,10,10,11,11,12,12,13,13,14,14,15,15,16,16,17,17,18,18,19,19,20,20,21,21,22,22,23,23,24,24,25,25,26,26,27,27,28,28,29,29,30,30],"right_children":[2,4,6,8,10,12,14,16,18,20,22,24,26,28,30,32,34,36,38,40,42,44,46,48,50,52,54,56,58,60,62,-1,-1,-1,-1,-1,-1,-1,-1,-1,-1,-1,-1,-1,-1,-1,-1,-1,-1,-1,-1,-1,-1,-1,-1,-1,-1,-1,-1,-1,-1,-1,-1],"split_conditions":[2.069E1,1.201E1,4E0,4E0,8E0,1E0,5E0,1.1E1,7.13E0,4E0,1.1E1,1E0,1E0,1.1E1,3E0,8E0,1.7E1,4.21E0,8E0,1E0,4E0,5E0,1.7E1,5E0,2.754E1,1E0,2E0,8E0,1.7E1,1E0,2E0,-4.6838585E-1,-2.8653258E-2,-4.9080974E-1,-2.6365626E-1,-2.945216E-1,-1.5589653E-1,-3.312766E-1,9.0045534E-2,3.5193827E-2,-6.6868657E-1,-3.3855984E-1,1.3924228E-1,8.4676373E-1,-1.5712109E-1,-3.0266768E-1,1.8475564E-1,2.699251E-1,-1.3410693E-1,5.031358E-1,1.1932802E0,-1.1456115E0,-6.010895E-2,3.0246542E-3,-5.5171573E-1,4.073333E-2,1.9140366E0,2.5178128E-1,8.5431427E-1,1.1055168E-1,-4.863437E-1,7.581552E-1,1.063288E-1],"split_indices":[0,0,5,7,1,6,2,1,0,5,1,3,7,1,7,1,1,0,1,4,7,2,1,2,0,3,4,1,1,6,4,0,0,0,0,0,0,0,0,0,0,0,0,0,0,0,0,0,0,0,0,0,0,0,0,0,0,0,0,0,0,0,0],"split_type":[0,0,0,0,0,0,0,0,0,0,0,0,0,0,0,0,0,0,0,0,0,0,0,0,0,0,0,0,0,0,0,0,0,0,0,0,0,0,0,0,0,0,0,0,0,0,0,0,0,0,0,0,0,0,0,0,0,0,0,0,0,0,0],"sum_hessian":[4E3,2.733E3,1.267E3,1.528E3,1.205E3,7.39E2,5.28E2,1.243E3,2.85E2,1.39E2,1.066E3,6.34E2,1.05E2,3.61E2,1.67E2,3.35E2,9.08E2,1.63E2,1.22E2,6.7E1,7.2E1,1.94E2,8.72E2,5.25E2,1.09E2,1.7E1,8.8E1,1.11E2,2.5E2,1.03E2,6.4E1,1.24E2,2.11E2,4.36E2,4.72E2,8.2E1,8.1E1,1.8E1,1.04E2,5E0,6.2E1,5.8E1,1.4E1,1.39E2,5.5E1,4.26E2,4.46E2,3.72E2,1.53E2,7.8E1,3.1E1,1.5E1,2E0,5.8E1,3E1,4E1,7.1E1,1.31E2,1.19E2,8.7E1,1.6E1,4.4E1,2E1],"tree_param":{"num_deleted":"0","num_feature":"8","num_nodes":"63","size_leaf_vector":"1"}},{"base_weights":[2.5593063E-3,-1.6036572E0,2.766211E0,-2.9992213E0,-5.131653E-1,8.894005E0,2.120072E0,-3.8703198E0,-2.4551744E0,-1.106628E0,2.7695668E0,7.3363056E0,1.4361023E1,2.9460852E0,-2.7404914E0,-4.187908E0,-1.7464534E0,-3.5715055E0,-1.7987529E0,-4.5129415E-1,-3.7813613E0,1.8892727E0,5.4744587E0,5.73421E0,1.235338E1,1.022844E1,1.835337E0,4.2419553E0,-6.1061952E-2,-3.764811E0,1.7076977E0,-5.930667E-1,-3.7816316E-1,-2.2994964E-1,1.08279824E-1,-4.4966656E-1,-3.093359E-1,-1.4478877E-1,-3.4589225E-1,-1.8317032E-1,4.5163924E-1,-4.8284674E-1,-2.2202961E-1,1.0878741E-1,4.653936E-1,7.044374E-1,5.9795465E-2,2.7032566E-1,1.0073506E0,8.1595615E-2,1.3280834E0,5.060238E-1,1.1960171E0,5.5110836E-1,-1.4940014E-1,-1.11479096E-1,4.154739E-1,-5.4490566E-1,-9.230589E-2,-4.979887E-1,4.3690214E-1],"categories":[],"categories_nodes":[],"categories_segments":[],"categories_sizes":[],"default_left":[0,0,0,0,0,0,0,0,0,0,0,0,0,0,0,0,0,0,0,0,0,0,0,0,0,0,0,0,0,0,0,0,0,0,0,0,0,0,0,0,0,0,0,0,0,0,0,0,0,0,0,0,0,0,0,0,0,0,0,0,0],"id":20,"left_children":[1,3,5,7,9,11,13,15,17,19,21,23,25,27,29,31,33,35,37,39,41,43,45,47,49,51,-1,53,55,57,59,-1,-1,-1,-1,-1,-1,-1,-1,-1,-1,-1,-1,-1,-1,-1,-1,-1,-1,-1,-1,-1,-1,-1,-1,-1,-1,-1,-1,-1,-1],"loss_changes":[1.7764969E4,3.850267E3,5.8054307E3,5.165469E2,2.7733752E3,1.0868789E3,5.355907E3,2.793545E2,4.9626562E2,2.1104692E3,5.0873706E2,8.213628E2,3.0723535E2,4.438795E3,8.903645E2,2.3883936E2,9.167767E1,9.800757E1,2.4779492E2,6.6531313E3,3.7667993E2,3.6272626E2,4.0153967E2,1.1038582E3,2.6737476E2,9.162756E1,0E0,5.8028506E3,1.5327867E3,7.511914E2,6.8027673E2,0E0,0E0,0E0,0E0,0E0,0E0,0E0,0E0,0E0,0E0,0E0,0E0,0E0,0E0,0E0,0E0,0E0,0E0,0E0,0E0,0E0,0E0,0E0,0E0,0E0,0E0,0E0,0E0,0E0,0E0],"parents":[2147483647,0,0,1,1,2,2,3,3,4,4,5,5,6,6,7,7,8,8,9,9,10,10,11,11,12,12,13,13,14,14,15,15,16,16,17,17,18,18,19,19,20,20,21,21,22,22,23,23,24,24,25,25,27,27,28,28,29,29,30,30],"right_children":[2,4,6,8,10,12,14,16,18,20,22,24,26,28,30,32,34,36,38,40,42,44,46,48,50,52,-1,54,56,58,60,-1,-1,-1,-1,-1,-1,-1,-1,-1,-1,-1,-1,-1,-1,-1,-1,-1,-1,-1,-1,-1,-1,-1,-1,-1,-1,-1,-1,-1,-1],"split_conditions":[1.937E1,8.95E0,1E0,3E0,1E0,1E0,1E0,1E0,3.74E0,2E1,5E0,5E0,4E0,5E0,1E0,1E0,7.13E0,1.9E0,2E1,1.7E1,3E0,1.741E1,2E1,2.67E1,1.989E1,1E0,1.835337E0,2E1,4E0,3E0,2E0,-5.930667E-1,-3.7816316E-1,-2.2994964E-1,1.08279824E-1,-4.4966656E-1,-3.093359E-1,-1.4478877E-1,-3.4589225E-1,-1.8317032E-1,4.5163924E-1,-4.8284674E-1,-2.2202961E-1,1.0878741E-1,4.653936E-1,7.044374E-1,5.9795465E-2,2.7032566E-1,1.0073506E0,8.1595615E-2,1.3280834E0,5.060238E-1,1.1960171E0,5.5110836E-1,-1.4940014E-1,-1.11479096E-1,4.154739E-1,-5.4490566E-1,-9.230589E-2,-4.979887E-1,4.3690214E-1],"split_indices":[0,0,4,5,3,3,6,3,0,1,5,5,5,2,3,7,0,0,1,1,7,0,1,0,0,7,0,1,7,7,5,0,0,0,0,0,0,0,0,0,0,0,0,0,0,0,0,0,0,0,0,0,0,0,0,0,0,0,0,0,0],"split_type":[0,0,0,0,0,0,0,0,0,0,0,0,0,0,0,0,0,0,0,0,0,0,0,0,0,0,0,0,0,0,0,0,0,0,0,0,0,0,0,0,0,0,0,0,0,0,0,0,0,0,0,0,0,0,0,0,0,0,0,0,0],"sum_hessian":[4E3,2.53E3,1.47E3,1.109E3,1.421E3,1.39E2,1.331E3,4.24E2,6.85E2,1.204E3,2.17E2,1.1E2,2.9E1,1.138E3,1.93E2,3.68E2,5.6E1,2.52E2,4.33E2,9.68E2,2.36E2,1.65E2,5.2E1,8.5E1,2.5E1,1.6E1,1.3E1,7.95E2,3.43E2,1.57E2,3.6E1,6.7E1,3.01E2,4.7E1,9E0,8.3E1,1.69E2,3.59E2,7.4E1,7.58E2,2.1E2,1.4E2,9.6E1,1.29E2,3.6E1,3.9E1,1.3E1,5.1E1,3.4E1,2E0,2.3E1,5E0,1.1E1,6.51E2,1.44E2,2.75E2,6.8E1,9.8E1,5.9E1,1E1,2.6E1],"tree_param":{"num_deleted":"0","num_feature":"8","num_nodes":"61","size_leaf_vector":"1"}},{"base_weights":[3.5008113E-3,-1.2994099E0,2.8127706E0,-2.3466563E0,2.93955E-2,-1.2946261E0,3.7000756E0,-1.8431022E0,-3.5275126E0,-1.7249987E0,1.2532353E0,-4.7463436E0,8.198586E-1,5.006883E0,9.714633E-1,-2.8876764E-1,-2.417679E0,-4.47577E0,-2.909888E0,3.1425593E0,-2.2057843E0,-2.0233417E0,1.9556167E0,-6.0303793E0,1.7334491E0,-1.211876E0,3.835255E0,5.9383864E0,8.015783E-1,2.555591E0,-2.5347383E0,-3.939284E-1,2.2239505E-1,-3.9740512E-1,-8.6702116E-2,-4.696776E-1,-2.9353425E-1,-2.6589513E-1,-4.9040318E-1,1.0089779E-2,4.1236588E-1,-1.5526597E-1,-5.631267E-1,1.4699621E-1,-3.278707E-1,-2.3726062E-1,2.5569305E-1,-4.5514622E-1,-1.1346833E0,-3.2502938E-2,1.5276073E0,-5.454595E-2,-7.557953E-1,8.7981826E-1,-3.355362E-1,4.6409607E-1,1.1529608E0,1.798784E-1,-3.4187487E-1,3.9495918E-1,-2.5238547E-1,-3.0874547E-1,4.621969E-1],"categories":[],"categories_nodes":[],"categories_segments":[],"categories_sizes":[],"default_left":[0,0,0,0,0,0,0,0,0,0,0,0,0,0,0,0,0,0,0,0,0,0,0,0,0,0,0,0,0,0,0,0,0,0,0,0,0,0,0,0,0,0,0,0,0,0,0,0,0,0,0,0,0,0,0,0,0,0,0,0,0,0,0],"id":21,"left_children":[1,3,5,7,9,11,13,15,17,19,21,23,25,27,29,31,33,35,37,39,41,43,45,47,49,51,53,55,57,59,61,-1,-1,-1,-1,-1,-1,-1,-1,-1,-1,-1,-1,-1,-1,-1,-1,-1,-1,-1,-1,-1,-1,-1,-1,-1,-1,-1,-1,-1,-1,-1,-1],"loss_changes":[1.4648227E4,3.8046665E3,4.626032E3,9.0268066E2,2.5915615E3,1.653376E3,3.7142354E3,9.5847485E2,2.5404004E2,1.1676969E3,1.6402568E3,7.259977E2,8.6848224E2,2.7569043E3,1.8893757E3,2.6780217E3,1.8886606E3,4.68125E1,1.2657324E2,1.338717E2,1.0025012E3,5.5737665E2,1.5312012E3,5.144619E2,4.2312314E2,3.5535352E2,2.0636523E3,4.132166E3,5.490504E2,1.6668636E3,4.3356677E2,0E0,0E0,0E0,0E0,0E0,0E0,0E0,0E0,0E0,0E0,0E0,0E0,0E0,0E0,0E0,0E0,0E0,0E0,0E0,0E0,0E0,0E0,0E0,0E0,0E0,0E0,0E0,0E0,0E0,0E0,0E0,0E0],"parents":[2147483647,0,0,1,1,2,2,3,3,4,4,5,5,6,6,7,7,8,8,9,9,10,10,11,11,12,12,13,13,14,14,15,15,16,16,17,17,18,18,19,19,20,20,21,21,22,22,23,23,24,24,25,25,26,26,27,27,28,28,29,29,30,30],"right_children":[2,4,6,8,10,12,14,16,18,20,22,24,26,28,30,32,34,36,38,40,42,44,46,48,50,52,54,56,58,60,62,-1,-1,-1,-1,-1,-1,-1,-1,-1,-1,-1,-1,-1,-1,-1,-1,-1,-1,-1,-1,-1,-1,-1,-1,-1,-1,-1,-1,-1,-1,-1,-1],"split_conditions":[2.069E1,1.201E1,2E0,5E0,2E0,2E0,2E0,1.1E1,3E0,1E0,2E0,1E0,1.7E1,2E1,5E0,8E0,1.7E1,1E0,1E0,1.481E1,1E0,1.1E1,8E0,1E0,2.729E1,1E0,2E1,1.7E1,1E0,2E1,1E0,-3.939284E-1,2.2239505E-1,-3.9740512E-1,-8.6702116E-2,-4.696776E-1,-2.9353425E-1,-2.6589513E-1,-4.9040318E-1,1.0089779E-2,4.1236588E-1,-1.5526597E-1,-5.631267E-1,1.4699621E-1,-3.278707E-1,-2.3726062E-1,2.5569305E-1,-4.5514622E-1,-1.1346833E0,-3.2502938E-2,1.5276073E0,-5.454595E-2,-7.557953E-1,8.7981826E-1,-3.355362E-1,4.6409607E-1,1.1529608E0,1.798784E-1,-3.4187487E-1,3.9495918E-1,-2.5238547E-1,-3.0874547E-1,4.621969E-1],"split_indices":[0,0,5,2,7,7,4,1,5,4,5,3,1,1,2,1,1,3,6,0,6,1,1,6,0,6,1,1,6,1,3,0,0,0,0,0,0,0,0,0,0,0,0,0,0,0,0,0,0,0,0,0,0,0,0,0,0,0,0,0,0,0,0],"split_type":[0,0,0,0,0,0,0,0,0,0,0,0,0,0,0,0,0,0,0,0,0,0,0,0,0,0,0,0,0,0,0,0,0,0,0,0,0,0,0,0,0,0,0,0,0,0,0,0,0,0,0,0,0,0,0,0,0,0,0,0,0,0,0],"sum_hessian":[4E3,2.733E3,1.267E3,1.528E3,1.205E3,2.25E2,1.042E3,1.073E3,4.55E2,4.95E2,7.1E2,8.5E1,1.4E2,7.04E2,3.38E2,2.9E2,7.83E2,1.77E2,2.78E2,4.4E1,4.51E2,1.25E2,5.85E2,7.1E1,1.4E1,8.4E1,5.6E1,5.76E2,1.28E2,2.33E2,1.05E2,1.18E2,1.72E2,3.9E2,3.93E2,1.53E2,2.4E1,2.49E2,2.9E1,1.1E1,3.3E1,3.8E2,7.1E1,3.3E1,9.2E1,7.1E1,5.14E2,5.7E1,1.4E1,1.3E1,1E0,7.7E1,7E0,3.3E1,2.3E1,4.69E2,1.07E2,1.04E2,2.4E1,1.83E2,5E1,9.8E1,7E0],"tree_param":{"num_deleted":"0","num_feature":"8","num_nodes":"63","size_leaf_vector":"1"}},{"base_weights":[2.840154E-3,-1.7234051E0,1.729084E0,-1.3517729E0,-3.9381292E0,9.593039E-1,5.5407643E0,-2.2837648E0,-3.4358296E-1,-3.382282E0,-5.310009E0,-3.680313E0,1.5768468E0,4.2025113E0,8.794784E0,-3.1984818E0,-1.8370655E0,4.0079588E-1,-2.2253294E0,-3.5046778E0,6.108851E-1,-3.1910913E0,-5.9984455E0,-6.219153E0,-2.2829673E0,7.1055512E0,2.0739041E-1,-3.840672E-2,5.128389E0,2.682723E0,1.0448343E1,-3.8627025E-1,-2.696129E-1,-1.4443688E-1,-3.449209E-1,1.031787E-1,-2.9111454E-1,-3.3890685E-1,-1.3912132E-1,-3.990381E-1,-1.7869864E-1,-5.461373E-1,-8.440756E-2,-6.540808E-1,-3.2839257E-1,-7.2051597E-1,-3.24518E-1,-1.1019639E-1,-6.4614815E-1,1.0962987E0,-3.078176E-1,-2.1677688E-1,2.4760318E-1,5.998227E-1,-1.7620619E-1,6.3399714E-1,1.628015E-1,-1.8263027E-1,6.5924364E-1,1.2638092E0,6.0062784E-1],"categories":[],"categories_nodes":[],"categories_segments":[],"categories_sizes":[],"default_left":[0,0,0,0,0,0,0,0,0,0,0,0,0,0,0,0,0,0,0,0,0,0,0,0,0,0,0,0,0,0,0,0,0,0,0,0,0,0,0,0,0,0,0,0,0,0,0,0,0,0,0,0,0,0,0,0,0,0,0,0,0],"id":22,"left_children":[1,3,5,7,9,11,13,15,17,19,21,23,25,27,29,31,33,35,37,39,-1,41,43,45,47,49,51,53,55,57,59,-1,-1,-1,-1,-1,-1,-1,-1,-1,-1,-1,-1,-1,-1,-1,-1,-1,-1,-1,-1,-1,-1,-1,-1,-1,-1,-1,-1,-1,-1],"loss_changes":[1.1925641E4,1.6416255E3,5.86593E3,1.6106724E3,2.0089355E2,4.7791646E3,1.4262197E3,3.5818994E2,1.156496E3,2.6187598E2,9.901611E1,6.811389E2,1.11359375E4,9.425737E2,9.5231494E2,8.668457E1,3.755011E2,1.2401687E3,2.2242749E2,1.638982E2,0E0,1.12614685E2,6.685571E1,1.7895044E2,6.245391E2,1.1504404E4,6.36366E3,4.6839252E2,8.251538E2,3.9987778E2,6.633447E2,0E0,0E0,0E0,0E0,0E0,0E0,0E0,0E0,0E0,0E0,0E0,0E0,0E0,0E0,0E0,0E0,0E0,0E0,0E0,0E0,0E0,0E0,0E0,0E0,0E0,0E0,0E0,0E0,0E0,0E0],"parents":[2147483647,0,0,1,1,2,2,3,3,4,4,5,5,6,6,7,7,8,8,9,9,10,10,11,11,12,12,13,13,14,14,15,15,16,16,17,17,18,18,19,19,21,21,22,22,23,23,24,24,25,25,26,26,27,27,28,28,29,29,30,30],"right_children":[2,4,6,8,10,12,14,16,18,20,22,24,26,28,30,32,34,36,38,40,-1,42,44,46,48,50,52,54,56,58,60,-1,-1,-1,-1,-1,-1,-1,-1,-1,-1,-1,-1,-1,-1,-1,-1,-1,-1,-1,-1,-1,-1,-1,-1,-1,-1,-1,-1,-1,-1],"split_conditions":[1.567E1,1E0,1E0,8.28E0,2E0,8E0,2.594E1,3.34E0,5E0,1.545E1,1E1,2E0,1.1E1,1E0,2E0,2E0,2E1,2E1,3E0,5E0,6.108851E-1,8E0,4E0,5E0,1E0,5E0,1.7E1,1E0,2E0,2.754E1,5E0,-3.8627025E-1,-2.696129E-1,-1.4443688E-1,-3.449209E-1,1.031787E-1,-2.9111454E-1,-3.3890685E-1,-1.3912132E-1,-3.990381E-1,-1.7869864E-1,-5.461373E-1,-8.440756E-2,-6.540808E-1,-3.2839257E-1,-7.2051597E-1,-3.24518E-1,-1.1019639E-1,-6.4614815E-1,1.0962987E0,-3.078176E-1,-2.1677688E-1,2.4760318E-1,5.998227E-1,-1.7620619E-1,6.3399714E-1,1.628015E-1,-1.8263027E-1,6.5924364E-1,1.2638092E0,6.0062784E-1],"split_indices":[0,6,3,0,4,1,0,0,2,0,1,7,1,7,5,7,1,1,5,5,0,1,7,5,6,2,1,4,4,0,2,0,0,0,0,0,0,0,0,0,0,0,0,0,0,0,0,0,0,0,0,0,0,0,0,0,0,0,0,0,0],"split_type":[0,0,0,0,0,0,0,0,0,0,0,0,0,0,0,0,0,0,0,0,0,0,0,0,0,0,0,0,0,0,0,0,0,0,0,0,0,0,0,0,0,0,0,0,0,0,0,0,0,0,0,0,0,0,0,0,0,0,0,0,0],"sum_hessian":[4E3,2E3,2E3,1.714E3,2.86E2,1.665E3,3.35E2,8.9E2,8.24E2,2.06E2,8E1,1.95E2,1.47E3,2.39E2,9.6E1,2.9E2,6E2,5.91E2,2.33E2,2.04E2,2E0,2.1E1,5.9E1,6.8E1,1.27E2,2.91E2,1.179E3,4.3E1,1.96E2,2.1E1,7.5E1,1.22E2,1.68E2,4.84E2,1.16E2,4.97E2,9.4E1,9.6E1,1.37E2,1.58E2,4.6E1,1E1,1.1E1,4.8E1,1.1E1,5E1,1.8E1,1E2,2.7E1,2.11E2,8E1,5.76E2,6.03E2,9E0,3.4E1,1.45E2,5.1E1,1E1,1.1E1,4.9E1,2.6E1],"tree_param":{"num_deleted":"0","num_feature":"8","num_nodes":"61","size_leaf_vector":"1"}},{"base_weights":[2.3533762E-3,-1.0382239E0,2.4612617E0,-2.354318E0,-2.585563E-1,7.802689E0,1.8715603E0,-6.3677794E-1,-3.0217848E0,-1.7081054E0,8.145928E-1,5.583154E0,1.0709593E1,2.6263735E0,-2.5822227E0,-4.6191034E0,1.2875438E0,-4.2138295E0,-1.8406097E0,-2.6895404E0,-1.208083E0,1.4735864E0,-2.003155E0,1.9400392E0,9.27636E0,1.5649095E1,8.353979E0,3.8743278E-1,4.0967474E0,-6.6983876E0,-1.4659673E0,1.14452755E-2,-5.2330273E-1,3.2492784E-1,-3.3112958E-1,-5.0280684E-1,-2.7519408E-1,5.8226306E-2,-4.2665473E-1,-3.8250232E-1,-2.3839235E-1,-9.032518E-2,-3.1313753E-1,-1.1175067E-2,6.7641944E-1,-1.1439407E-1,-4.084734E-1,-1.43819945E-2,3.2726687E-1,6.533932E-1,1.2727402E0,2.0399904E0,7.305326E-1,3.758734E-1,1.1842239E0,1.183504E-1,-3.2369432E-1,3.1773567E-1,8.801412E-1,-8.4202003E-1,-2.651968E-2,-2.5566593E-1,2.95544E-1],"categories":[],"categories_nodes":[],"categories_segments":[],"categories_sizes":[],"default_left":[0,0,0,0,0,0,0,0,0,0,0,0,0,0,0,0,0,0,0,0,0,0,0,0,0,0,0,0,0,0,0,0,0,0,0,0,0,0,0,0,0,0,0,0,0,0,0,0,0,0,0,0,0,0,0,0,0,0,0,0,0,0,0],"id":23,"left_children":[1,3,5,7,9,11,13,15,17,19,21,23,25,27,29,31,33,35,37,39,41,43,45,47,49,51,53,55,57,59,61,-1,-1,-1,-1,-1,-1,-1,-1,-1,-1,-1,-1,-1,-1,-1,-1,-1,-1,-1,-1,-1,-1,-1,-1,-1,-1,-1,-1,-1,-1,-1,-1],"loss_changes":[1.0239851E4,2.8848296E3,3.7337144E3,1.1972109E3,2.7501055E3,7.0154004E2,3.613966E3,2.2589502E3,1.0524785E3,3.6578662E2,1.8895398E3,9.1038257E2,4.510459E2,3.0205425E3,7.0695215E2,2.7957935E2,1.8060781E3,4.313452E2,2.2360244E3,7.8678345E1,2.9031146E2,6.9119707E3,3.4051215E2,1.00443115E2,2.3862402E2,4.455669E2,5.3254663E2,1.0569513E3,2.3683193E3,3.632998E2,6.0553284E2,0E0,0E0,0E0,0E0,0E0,0E0,0E0,0E0,0E0,0E0,0E0,0E0,0E0,0E0,0E0,0E0,0E0,0E0,0E0,0E0,0E0,0E0,0E0,0E0,0E0,0E0,0E0,0E0,0E0,0E0,0E0,0E0],"parents":[2147483647,0,0,1,1,2,2,3,3,4,4,5,5,6,6,7,7,8,8,9,9,10,10,11,11,12,12,13,13,14,14,15,15,16,16,17,17,18,18,19,19,20,20,21,21,22,22,23,23,24,24,25,25,26,26,27,27,28,28,29,29,30,30],"right_children":[2,4,6,8,10,12,14,16,18,20,22,24,26,28,30,32,34,36,38,40,42,44,46,48,50,52,54,56,58,60,62,-1,-1,-1,-1,-1,-1,-1,-1,-1,-1,-1,-1,-1,-1,-1,-1,-1,-1,-1,-1,-1,-1,-1,-1,-1,-1,-1,-1,-1,-1,-1,-1],"split_conditions":[2.124E1,3E0,1E0,1.1E1,9.7E0,4E0,1E0,8E0,1.7E1,3.74E0,2E1,2.67E1,1.1E1,3E0,2E0,1E0,5E0,3E0,2E1,1.57E0,1E0,1.7E1,2E0,2E0,1.7E1,4E0,3E0,2E1,2.846E1,4E0,1E0,1.14452755E-2,-5.2330273E-1,3.2492784E-1,-3.3112958E-1,-5.0280684E-1,-2.7519408E-1,5.8226306E-2,-4.2665473E-1,-3.8250232E-1,-2.3839235E-1,-9.032518E-2,-3.1313753E-1,-1.1175067E-2,6.7641944E-1,-1.1439407E-1,-4.084734E-1,-1.43819945E-2,3.2726687E-1,6.533932E-1,1.2727402E0,2.0399904E0,7.305326E-1,3.758734E-1,1.1842239E0,1.183504E-1,-3.2369432E-1,3.1773567E-1,8.801412E-1,-8.4202003E-1,-2.651968E-2,-2.5566593E-1,2.95544E-1],"split_indices":[0,5,4,1,0,5,6,1,1,0,1,0,1,5,5,4,2,7,1,0,6,1,4,7,1,2,7,1,0,7,3,0,0,0,0,0,0,0,0,0,0,0,0,0,0,0,0,0,0,0,0,0,0,0,0,0,0,0,0,0,0,0,0],"split_type":[0,0,0,0,0,0,0,0,0,0,0,0,0,0,0,0,0,0,0,0,0,0,0,0,0,0,0,0,0,0,0,0,0,0,0,0,0,0,0,0,0,0,0,0,0,0,0,0,0,0,0,0,0,0,0,0,0,0,0,0,0,0,0],"sum_hessian":[4E3,2.811E3,1.189E3,1.045E3,1.766E3,1.17E2,1.072E3,2.93E2,7.52E2,7.51E2,1.015E3,6.8E1,4.9E1,9.17E2,1.55E2,9.5E1,1.98E2,3.73E2,3.79E2,2.52E2,4.99E2,8.23E2,1.92E2,3.5E1,3.3E1,1.4E1,3.5E1,3.64E2,5.53E2,3.2E1,1.23E2,1.1E1,8.4E1,1.39E2,5.9E1,2.38E2,1.35E2,1.9E2,1.89E2,5.1E1,2.01E2,4.32E2,6.7E1,6.34E2,1.89E2,1.37E2,5.5E1,1.4E1,2.1E1,2E1,1.3E1,8E0,6E0,1.6E1,1.9E1,2.99E2,6.5E1,4.64E2,8.9E1,2.5E1,7E0,9.9E1,2.4E1],"tree_param":{"num_deleted":"0","num_feature":"8","num_nodes":"63","size_leaf_vector":"1"}},{"base_weights":[3.1643684E-3,-7.1255773E-1,2.931611E0,-1.5912856E0,5.9893894E-1,4.2743907E0,1.9862464E-1,-2.0649536E0,9.3291354E-1,-9.00982E-1,2.1595218E0,1.7488173E0,5.876856E0,1.305008E0,-5.1164293E0,-2.6370325E0,2.1679526E-2,-1.1055851E0,2.1725607E0,-1.5802356E0,1.2701878E-2,2.844288E0,-1.3916466E0,-1.01014666E-1,3.749151E0,4.853601E0,1.0355881E1,-1.8876399E0,3.2728047E0,-7.039054E0,-1.5356914E0,4.437998E-3,-2.9368275E-1,-1.2688385E-1,1.4930525E-1,-3.121655E-1,-7.2785944E-2,5.1204485E-1,7.3890485E-2,-1.2253511E-1,-3.5989404E-1,-1.24827504E-1,1.0102298E-1,2.0388047E-1,5.313211E-1,3.184839E-3,-4.2814407E-1,3.3983383E-1,-1.6860412E-1,5.6824553E-1,7.554664E-2,4.070967E-1,1.0822446E0,1.2224821E0,6.100208E-1,-2.591254E-1,2.9534027E-1,-3.7988818E-1,4.2638713E-1,-8.61278E-1,-4.7377205E-1,9.215336E-2,-2.6363298E-1],"categories":[],"categories_nodes":[],"categories_segments":[],"categories_sizes":[],"default_left":[0,0,0,0,0,0,0,0,0,0,0,0,0,0,0,0,0,0,0,0,0,0,0,0,0,0,0,0,0,0,0,0,0,0,0,0,0,0,0,0,0,0,0,0,0,0,0,0,0,0,0,0,0,0,0,0,0,0,0,0,0,0,0],"id":24,"left_children":[1,3,5,7,9,11,13,15,17,19,21,23,25,27,29,31,33,35,37,39,41,43,45,47,49,51,53,55,57,59,61,-1,-1,-1,-1,-1,-1,-1,-1,-1,-1,-1,-1,-1,-1,-1,-1,-1,-1,-1,-1,-1,-1,-1,-1,-1,-1,-1,-1,-1,-1,-1,-1],"loss_changes":[8.388002E3,3.707228E3,2.8836128E3,2.3047134E3,3.0238555E3,2.1225674E3,1.5356036E3,1.936269E3,7.731427E2,4.0901068E2,1.5432368E3,7.626367E2,1.4255215E3,1.363194E3,2.989889E2,1.0234619E3,6.6648615E2,8.606435E1,7.992051E2,2.663919E2,3.5597745E2,1.0451543E3,4.238379E2,6.0475903E2,5.686897E2,1.1891973E3,3.94688E2,2.9036972E2,9.553386E2,6.422339E1,4.8406235E1,0E0,0E0,0E0,0E0,0E0,0E0,0E0,0E0,0E0,0E0,0E0,0E0,0E0,0E0,0E0,0E0,0E0,0E0,0E0,0E0,0E0,0E0,0E0,0E0,0E0,0E0,0E0,0E0,0E0,0E0,0E0,0E0],"parents":[2147483647,0,0,1,1,2,2,3,3,4,4,5,5,6,6,7,7,8,8,9,9,10,10,11,11,12,12,13,13,14,14,15,15,16,16,17,17,18,18,19,19,20,20,21,21,22,22,23,23,24,24,25,25,26,26,27,27,28,28,29,29,30,30],"right_children":[2,4,6,8,10,12,14,16,18,20,22,24,26,28,30,32,34,36,38,40,42,44,46,48,50,52,54,56,58,60,62,-1,-1,-1,-1,-1,-1,-1,-1,-1,-1,-1,-1,-1,-1,-1,-1,-1,-1,-1,-1,-1,-1,-1,-1,-1,-1,-1,-1,-1,-1,-1,-1],"split_conditions":[2.431E1,3E0,2E0,1E0,1.28E1,3E0,1E0,5E0,1.033E1,4E0,1E0,2.712E1,1E0,2E0,1.6E1,1E0,1.347E1,2.14E0,1.1E1,1E0,5.82E0,5E0,4E0,1.1E1,4E0,2.943E1,5E0,1E0,8E0,2E0,2E0,4.437998E-3,-2.9368275E-1,-1.2688385E-1,1.4930525E-1,-3.121655E-1,-7.2785944E-2,5.1204485E-1,7.3890485E-2,-1.2253511E-1,-3.5989404E-1,-1.24827504E-1,1.0102298E-1,2.0388047E-1,5.313211E-1,3.184839E-3,-4.2814407E-1,3.3983383E-1,-1.6860412E-1,5.6824553E-1,7.554664E-2,4.070967E-1,1.0822446E0,1.2224821E0,6.100208E-1,-2.591254E-1,2.9534027E-1,-3.7988818E-1,4.2638713E-1,-8.61278E-1,-4.7377205E-1,9.215336E-2,-2.6363298E-1],"split_indices":[0,7,4,3,0,5,6,5,0,5,6,0,3,7,1,4,0,0,1,6,0,5,2,1,2,0,2,3,1,7,7,0,0,0,0,0,0,0,0,0,0,0,0,0,0,0,0,0,0,0,0,0,0,0,0,0,0,0,0,0,0,0,0],"split_type":[0,0,0,0,0,0,0,0,0,0,0,0,0,0,0,0,0,0,0,0,0,0,0,0,0,0,0,0,0,0,0,0,0,0,0,0,0,0,0,0,0,0,0,0,0,0,0,0,0,0,0,0,0,0,0,0,0,0,0,0,0,0,0],"sum_hessian":[4E3,3.215E3,7.85E2,1.925E3,1.29E3,5.26E2,2.59E2,1.621E3,3.04E2,6.58E2,6.32E2,2.05E2,3.21E2,2.15E2,4.4E1,1.272E3,3.49E2,1.15E2,1.89E2,3.77E2,2.81E2,5.3E2,1.02E2,1.07E2,9.8E1,2.63E2,5.8E1,8.2E1,1.33E2,2.8E1,1.6E1,1.28E2,1.144E3,1.86E2,1.63E2,1.7E1,9.8E1,6.1E1,1.28E2,3.22E2,5.5E1,1.24E2,1.57E2,4.01E2,1.29E2,6.9E1,3.3E1,3.3E1,7.4E1,5.9E1,3.9E1,2.34E2,2.9E1,3.9E1,1.9E1,7.2E1,1E1,1.6E1,1.17E2,1.5E1,1.3E1,5E0,1.1E1],"tree_param":{"num_deleted":"0","num_feature":"8","num_nodes":"63","size_leaf_vector":"1"}},{"base_weights":[3.4605954E-3,-8.497801E-1,2.019687E0,-1.9546959E0,-1.04113705E-1,2.8184044E0,-1.4564489E0,-1.3471578E0,-3.2878175E0,-1.0664248E0,1.1286215E0,1.3104979E0,8.355633E0,-3.5879674E0,-2.6215768E-1,-2.2016978E0,2.3009446E-1,-5.4219127E-1,-3.6556833E0,-7.4615985E-1,-2.9636889E0,1.7915195E0,-1.5901867E0,3.9985664E0,-1.1450595E0,1.2434838E1,8.560498E-1,-4.402746E0,9.4994915E-1,5.421826E0,-7.730272E-1,1.6672306E-2,-3.9663377E-1,4.1428566E-1,-3.684335E-1,-1.9754279E-1,1.2048023E-1,-3.280786E-1,-6.053644E-1,-2.3517413E-1,-3.6507394E-2,-2.4199815E-1,-4.083336E-1,4.440817E-2,6.7321646E-1,2.4201241E-1,-2.0715313E-1,-2.411636E-1,8.109649E-1,-3.047515E-1,1.7457381E-1,1.0685066E0,1.767833E0,-1.0305052E-1,3.2311788E-1,-5.6681657E-1,-1.6804832E-1,-6.476715E-2,4.7065136E-1,1.6919194E-1,6.4771366E-1,-4.191668E-1,-2.0148627E-2],"categories":[],"categories_nodes":[],"categories_segments":[],"categories_sizes":[],"default_left":[0,0,0,0,0,0,0,0,0,0,0,0,0,0,0,0,0,0,0,0,0,0,0,0,0,0,0,0,0,0,0,0,0,0,0,0,0,0,0,0,0,0,0,0,0,0,0,0,0,0,0,0,0,0,0,0,0,0,0,0,0,0,0],"id":25,"left_children":[1,3,5,7,9,11,13,15,17,19,21,23,25,27,29,31,33,35,37,39,41,43,45,47,49,51,53,55,57,59,61,-1,-1,-1,-1,-1,-1,-1,-1,-1,-1,-1,-1,-1,-1,-1,-1,-1,-1,-1,-1,-1,-1,-1,-1,-1,-1,-1,-1,-1,-1,-1,-1],"loss_changes":[6.884741E3,2.316599E3,3.308081E3,9.132129E2,1.994145E3,8.071484E3,5.6674023E2,1.0518102E3,3.5556592E2,5.713888E2,1.3311384E3,5.034317E3,6.3219697E3,2.9997412E2,4.2233463E2,2.1154429E3,4.227227E3,1.1004577E2,2.6062354E2,4.9413986E2,7.290979E1,3.9447368E3,2.8491278E2,9.612002E3,2.1996658E3,1.0405449E3,3.3490982E2,2.2472144E2,8.106862E1,3.6275787E1,2.590232E2,0E0,0E0,0E0,0E0,0E0,0E0,0E0,0E0,0E0,0E0,0E0,0E0,0E0,0E0,0E0,0E0,0E0,0E0,0E0,0E0,0E0,0E0,0E0,0E0,0E0,0E0,0E0,0E0,0E0,0E0,0E0,0E0],"parents":[2147483647,0,0,1,1,2,2,3,3,4,4,5,5,6,6,7,7,8,8,9,9,10,10,11,11,12,12,13,13,14,14,15,15,16,16,17,17,18,18,19,19,20,20,21,21,22,22,23,23,24,24,25,25,26,26,27,27,28,28,29,29,30,30],"right_children":[2,4,6,8,10,12,14,16,18,20,22,24,26,28,30,32,34,36,38,40,42,44,46,48,50,52,54,56,58,60,62,-1,-1,-1,-1,-1,-1,-1,-1,-1,-1,-1,-1,-1,-1,-1,-1,-1,-1,-1,-1,-1,-1,-1,-1,-1,-1,-1,-1,-1,-1,-1,-1],"split_conditions":[2.124E1,2E0,2E1,5E0,1.238E1,1.7E1,2E0,1.7E1,1E0,1E0,2E1,1.1E1,5E0,2.888E1,1E0,1.1E1,2E1,8.38E0,1E0,2E0,2E0,1.7E1,1E0,8E0,3E0,2.814E1,3E0,5E0,1E0,3E0,2E0,1.6672306E-2,-3.9663377E-1,4.1428566E-1,-3.684335E-1,-1.9754279E-1,1.2048023E-1,-3.280786E-1,-6.053644E-1,-2.3517413E-1,-3.6507394E-2,-2.4199815E-1,-4.083336E-1,4.440817E-2,6.7321646E-1,2.4201241E-1,-2.0715313E-1,-2.411636E-1,8.109649E-1,-3.047515E-1,1.7457381E-1,1.0685066E0,1.767833E0,-1.0305052E-1,3.2311788E-1,-5.6681657E-1,-1.6804832E-1,-6.476715E-2,4.7065136E-1,1.6919194E-1,6.4771366E-1,-4.191668E-1,-2.0148627E-2],"split_indices":[0,7,1,2,0,1,7,1,4,6,1,1,2,0,4,1,1,0,6,5,4,1,4,1,7,0,7,2,3,7,5,0,0,0,0,0,0,0,0,0,0,0,0,0,0,0,0,0,0,0,0,0,0,0,0,0,0,0,0,0,0,0,0],"split_type":[0,0,0,0,0,0,0,0,0,0,0,0,0,0,0,0,0,0,0,0,0,0,0,0,0,0,0,0,0,0,0,0,0,0,0,0,0,0,0,0,0,0,0,0,0,0,0,0,0,0,0,0,0,0,0,0,0,0,0,0,0,0,0],"sum_hessian":[4E3,2.811E3,1.189E3,1.132E3,1.679E3,9.67E2,2.22E2,7.79E2,3.53E2,9.43E2,7.36E2,7.61E2,2.06E2,7.9E1,1.43E2,5.05E2,2.74E2,4.2E1,3.11E2,8.08E2,1.35E2,5.92E2,1.44E2,3.63E2,3.98E2,1.33E2,7.3E1,6.7E1,1.2E1,1.1E1,1.32E2,2.16E2,2.89E2,1.37E2,1.37E2,2.3E1,1.9E1,2.71E2,4E1,1.54E2,6.54E2,9.3E1,4.2E1,4.66E2,1.26E2,1.5E1,1.29E2,1.42E2,2.21E2,2.4E2,1.58E2,1.02E2,3.1E1,4.1E1,3.2E1,4.5E1,2.2E1,9E0,3E0,3E0,8E0,1.8E1,1.14E2],"tree_param":{"num_deleted":"0","num_feature":"8","num_nodes":"63","size_leaf_vector":"1"}},{"base_weights":[3.622163E-3,-5.5204594E-1,2.5888863E0,-1.53149E-1,-2.8620424E0,3.9333048E0,1.6167093E-2,-1.1253384E0,8.637282E-1,-2.2274063E0,-4.671975E0,7.044642E0,2.612275E0,9.9076474E-1,-4.694773E0,-6.679516E-1,-2.1773698E0,-2.179857E-1,2.5195704E0,-5.619376E0,-1.7142318E0,-5.0304337E0,-2.2616675E0,3.7692592E-1,1.1197724E1,1.8272272E-1,4.8692546E0,-7.529486E-1,3.7948303E0,-6.358032E0,-1.5946002E0,-2.5289455E-2,-2.514032E-1,-2.4873693E-1,-1.17939614E-1,3.9148495E-1,-6.567757E-2,3.4244272E-1,5.64533E-2,-6.5037364E-1,-3.2991576E-1,2.268772E-1,-2.6603064E-1,-7.066777E-1,-4.4873244E-1,-2.956821E-1,1.3709584E-2,1.4374273E-1,-5.900635E-1,1.5547026E0,-1.2024359E-1,-1.7917961E-1,3.2199547E-1,8.9374113E-1,4.973625E-2,-2.4129629E-1,5.2557547E-2,-4.9151278E-1,5.4529303E-1,-6.9783014E-1,-1.0469103E-1,-3.7647483E-1,-5.5748846E-2],"categories":[],"categories_nodes":[],"categories_segments":[],"categories_sizes":[],"default_left":[0,0,0,0,0,0,0,0,0,0,0,0,0,0,0,0,0,0,0,0,0,0,0,0,0,0,0,0,0,0,0,0,0,0,0,0,0,0,0,0,0,0,0,0,0,0,0,0,0,0,0,0,0,0,0,0,0,0,0,0,0,0,0],"id":26,"left_children":[1,3,5,7,9,11,13,15,17,19,21,23,25,27,29,31,33,35,37,39,41,43,45,47,49,51,53,55,57,59,61,-1,-1,-1,-1,-1,-1,-1,-1,-1,-1,-1,-1,-1,-1,-1,-1,-1,-1,-1,-1,-1,-1,-1,-1,-1,-1,-1,-1,-1,-1,-1,-1],"loss_changes":[5.7490605E3,3.0348193E3,2.448775E3,2.7789302E3,5.46688E2,1.8928257E3,1.1249216E3,6.9000903E2,2.4615857E3,6.1874976E2,9.662256E1,3.8172163E3,1.7976819E3,9.954231E2,2.0642993E2,7.678915E2,1.3164282E2,1.5113585E3,9.586494E2,7.498303E1,1.1930244E3,8.773242E1,3.0420525E1,3.679793E2,4.602918E3,9.593038E2,3.0190967E3,2.6868655E2,1.1532766E3,8.164099E1,3.3912178E1,0E0,0E0,0E0,0E0,0E0,0E0,0E0,0E0,0E0,0E0,0E0,0E0,0E0,0E0,0E0,0E0,0E0,0E0,0E0,0E0,0E0,0E0,0E0,0E0,0E0,0E0,0E0,0E0,0E0,0E0,0E0,0E0],"parents":[2147483647,0,0,1,1,2,2,3,3,4,4,5,5,6,6,7,7,8,8,9,9,10,10,11,11,12,12,13,13,14,14,15,15,16,16,17,17,18,18,19,19,20,20,21,21,22,22,23,23,24,24,25,25,26,26,27,27,28,28,29,29,30,30],"right_children":[2,4,6,8,10,12,14,16,18,20,22,24,26,28,30,32,34,36,38,40,42,44,46,48,50,52,54,56,58,60,62,-1,-1,-1,-1,-1,-1,-1,-1,-1,-1,-1,-1,-1,-1,-1,-1,-1,-1,-1,-1,-1,-1,-1,-1,-1,-1,-1,-1,-1,-1,-1,-1],"split_conditions":[2.482E1,1E0,2E0,1.299E1,5E0,1.1E1,1E0,5E0,3E0,8E0,1E0,8E0,1.7E1,2.802E1,1.6E1,2E1,5E0,1E0,2E0,4E0,1.1E1,1E0,3E0,1E0,5E0,3E0,2E1,2E0,8E0,1E0,2E0,-2.5289455E-2,-2.514032E-1,-2.4873693E-1,-1.17939614E-1,3.9148495E-1,-6.567757E-2,3.4244272E-1,5.64533E-2,-6.5037364E-1,-3.2991576E-1,2.268772E-1,-2.6603064E-1,-7.066777E-1,-4.4873244E-1,-2.956821E-1,1.3709584E-2,1.4374273E-1,-5.900635E-1,1.5547026E0,-1.2024359E-1,-1.7917961E-1,3.2199547E-1,8.9374113E-1,4.973625E-2,-2.4129629E-1,5.2557547E-2,-4.9151278E-1,5.4529303E-1,-6.9783014E-1,-1.0469103E-1,-3.7647483E-1,-5.5748846E-2],"split_indices":[0,6,4,0,2,1,6,2,7,1,3,1,1,0,1,1,5,4,4,7,1,7,7,6,2,7,1,7,1,3,5,0,0,0,0,0,0,0,0,0,0,0,0,0,0,0,0,0,0,0,0,0,0,0,0,0,0,0,0,0,0,0,0],"split_type":[0,0,0,0,0,0,0,0,0,0,0,0,0,0,0,0,0,0,0,0,0,0,0,0,0,0,0,0,0,0,0,0,0,0,0,0,0,0,0,0,0,0,0,0,0,0,0,0,0,0,0,0,0,0,0,0,0,0,0,0,0,0,0],"sum_hessian":[4E3,3.293E3,7.07E2,2.809E3,4.84E2,4.64E2,2.43E2,1.436E3,1.373E3,3.6E2,1.24E2,1.37E2,3.27E2,2.02E2,4.1E1,1.002E3,4.34E2,8.31E2,5.42E2,4.6E1,3.14E2,1.07E2,1.7E1,5.3E1,8.4E1,1.58E2,1.69E2,1.25E2,7.7E1,2.6E1,1.5E1,8.19E2,1.83E2,3.3E2,1.04E2,7.9E1,7.52E2,3.7E2,1.72E2,3.2E1,1.4E1,6E1,2.54E2,2E1,8.7E1,1.3E1,4E0,4.6E1,7E0,6.2E1,2.2E1,9.6E1,6.2E1,8.7E1,8.2E1,5.4E1,7.1E1,1.2E1,6.5E1,2.3E1,3E0,4E0,1.1E1],"tree_param":{"num_deleted":"0","num_feature":"8","num_nodes":"63","size_leaf_vector":"1"}},{"base_weights":[2.8424754E-3,-4.6991584E-1,2.537995E0,-2.6206095E0,2.7897928E-2,8.199663E-1,4.468007E0,7.9280347E-1,-2.9919808E0,-3.7808004E-1,2.9837258E0,-1.1897538E0,1.4680971E0,2.2291627E0,5.818667E0,-1.1118822E0,3.2133706E0,-4.3737416E0,-1.9727116E0,2.6381282E-2,-2.7117596E0,1.3938171E0,5.1698313E0,-2.216871E0,-5.5455387E-1,2.11754E0,-1.9394034E-1,1.1039762E0,6.584067E0,4.990517E0,1.1131729E1,-1.6196445E-1,2.3601721E-1,2.3825072E-1,9.343063E-1,-3.5610178E-1,-5.755543E-1,-1.250368E-1,-3.6052728E-1,-1.4225607E-1,7.144538E-2,-3.4429282E-1,-1.6364974E-1,2.5866494E-1,-1.4272003E-1,4.0599367E-1,1.088791E0,-2.4071772E-1,-1.0227331E-1,-1.0672021E-1,4.7307063E-2,-2.1444969E-1,2.513199E-1,-9.421934E-2,2.103163E-1,6.7968205E-2,8.265902E-1,8.6367714E-1,-6.7139246E-2,6.118795E-1,1.1774384E-1,1.2330277E0,-1.3681908E-1],"categories":[],"categories_nodes":[],"categories_segments":[],"categories_sizes":[],"default_left":[0,0,0,0,0,0,0,0,0,0,0,0,0,0,0,0,0,0,0,0,0,0,0,0,0,0,0,0,0,0,0,0,0,0,0,0,0,0,0,0,0,0,0,0,0,0,0,0,0,0,0,0,0,0,0,0,0,0,0,0,0,0,0],"id":27,"left_children":[1,3,5,7,9,11,13,15,17,19,21,23,25,27,29,31,33,35,37,39,41,43,45,47,49,51,53,55,57,59,61,-1,-1,-1,-1,-1,-1,-1,-1,-1,-1,-1,-1,-1,-1,-1,-1,-1,-1,-1,-1,-1,-1,-1,-1,-1,-1,-1,-1,-1,-1,-1,-1],"loss_changes":[4.796449E3,3.6113582E3,2.0819844E3,8.060581E2,3.2891309E3,4.3680212E2,8.821089E2,2.9402936E2,7.9696875E2,2.2748298E3,1.1432532E3,5.2269463E1,2.7349854E2,5.464402E2,7.540493E2,6.728984E1,1.2034235E2,2.5127637E2,3.8583032E2,2.0498042E3,2.7425195E2,6.531367E2,8.379541E2,4.582901E0,2.789897E1,3.1229852E2,1.2573623E2,2.709093E2,3.4834497E2,6.854514E2,3.7643164E2,0E0,0E0,0E0,0E0,0E0,0E0,0E0,0E0,0E0,0E0,0E0,0E0,0E0,0E0,0E0,0E0,0E0,0E0,0E0,0E0,0E0,0E0,0E0,0E0,0E0,0E0,0E0,0E0,0E0,0E0,0E0,0E0],"parents":[2147483647,0,0,1,1,2,2,3,3,4,4,5,5,6,6,7,7,8,8,9,9,10,10,11,11,12,12,13,13,14,14,15,15,16,16,17,17,18,18,19,19,20,20,21,21,22,22,23,23,24,24,25,25,26,26,27,27,28,28,29,29,30,30],"right_children":[2,4,6,8,10,12,14,16,18,20,22,24,26,28,30,32,34,36,38,40,42,44,46,48,50,52,54,56,58,60,62,-1,-1,-1,-1,-1,-1,-1,-1,-1,-1,-1,-1,-1,-1,-1,-1,-1,-1,-1,-1,-1,-1,-1,-1,-1,-1,-1,-1,-1,-1,-1,-1],"split_conditions":[1E0,2E0,1.741E1,1E0,2.644E1,4.52E0,3E0,1.666E1,2E0,1E0,3E0,2.33E0,5E0,4E0,2.814E1,4E0,2.943E1,1.793E1,5E0,9.03E0,1.7E1,5E0,2.943E1,4E0,5E0,8E0,5E0,2.909E1,1E0,2E0,2.2E1,-1.6196445E-1,2.3601721E-1,2.3825072E-1,9.343063E-1,-3.5610178E-1,-5.755543E-1,-1.250368E-1,-3.6052728E-1,-1.4225607E-1,7.144538E-2,-3.4429282E-1,-1.6364974E-1,2.5866494E-1,-1.4272003E-1,4.0599367E-1,1.088791E0,-2.4071772E-1,-1.0227331E-1,-1.0672021E-1,4.7307063E-2,-2.1444969E-1,2.513199E-1,-9.421934E-2,2.103163E-1,6.7968205E-2,8.265902E-1,8.6367714E-1,-6.7139246E-2,6.118795E-1,1.1774384E-1,1.2330277E0,-1.3681908E-1],"split_indices":[3,5,0,4,0,0,5,0,7,6,7,0,2,7,0,7,0,0,2,0,1,2,0,7,5,1,5,0,6,4,1,0,0,0,0,0,0,0,0,0,0,0,0,0,0,0,0,0,0,0,0,0,0,0,0,0,0,0,0,0,0,0,0],"split_type":[0,0,0,0,0,0,0,0,0,0,0,0,0,0,0,0,0,0,0,0,0,0,0,0,0,0,0,0,0,0,0,0,0,0,0,0,0,0,0,0,0,0,0,0,0,0,0,0,0,0,0,0,0,0,0,0,0,0,0,0,0,0,0],"sum_hessian":[4E3,3.372E3,6.28E2,6.33E2,2.739E3,3.33E2,2.95E2,6.2E1,5.71E2,2.409E3,3.3E2,8.1E1,2.52E2,1.12E2,1.83E2,3.5E1,2.7E1,2.41E2,3.3E2,2.054E3,3.55E2,1.92E2,1.38E2,3E1,5.1E1,1.81E2,7.1E1,9E1,2.2E1,1.6E2,2.3E1,3.1E1,4E0,2.5E1,2E0,1.54E2,8.7E1,2.3E2,1E2,6.61E2,1.393E3,2.1E2,1.45E2,1.35E2,5.7E1,1.17E2,2.1E1,2.5E1,5E0,3.4E1,1.7E1,1.5E1,1.66E2,5.4E1,1.7E1,8.6E1,4E0,1.7E1,5E0,1.23E2,3.7E1,2.1E1,2E0],"tree_param":{"num_deleted":"0","num_feature":"8","num_nodes":"63","size_leaf_vector":"1"}},{"base_weights":[3.5902706E-3,-3.1787872E-1,3.0946286E0,-8.279479E-1,1.467125E0,-2.372821E0,3.7688496E0,-1.2356656E0,1.3743106E0,-5.478478E-1,2.5059416E0,5.061582E0,-3.5142696E0,9.500982E0,2.197218E0,-2.3297403E0,-4.8788342E-1,-1.2096949E-1,2.538464E0,-1.5469275E0,1.2758057E-1,7.128331E0,1.9580176E0,-2.4687234E-1,7.0613875E0,2.462015E0,-4.7503896E0,1.3970233E1,-2.0181596E0,-1.5112434E-1,4.1715274E0,-2.950885E-1,-1.19293526E-1,9.725287E-3,-1.9224182E-1,-1.4803249E-1,4.6964034E-2,7.124275E-1,1.9224323E-1,-1.852277E-1,-2.2745496E-2,-5.6854904E-2,1.1043485E-1,4.5342013E-1,8.7989616E-1,2.5405583E-1,-1.10116184E-1,1.5398274E-1,8.056821E-1,-1.6078082E-1,5.9163344E-1,-5.724288E-1,-2.9615852E-1,